svm_type c_svc
kernel_type rbf
gamma 0.00666667
nr_class 3
total_sv 68
rho -0.35294 -0.919022 -1.30901
label 1 2 3
nr_sv 31 30 7
SV
0.6474383233204806 0.08099710920150649 1:0.17 2:-0.07 3:0.47999999 4:0.17 5:-0.07 6:0.47999999 7:-0.74000001 8:-0.31999999 9:0.14999999 10:-0.74000001 11:-0.31999999 12:0.14999999 13:-0.07 14:-0.74000001 15:-1.09 16:-0.07 17:-0.74000001 18:-1.09 19:0.28999999 20:0 21:1.7099999 22:0.28999999 23:0 24:1.7099999 25:-0.34999999 26:0.48999998 27:-0.48999998 28:-0.34999999 29:0.48999998 30:-0.48999998 31:-0.5 32:1.1 33:-2.6499999 34:-0.5 35:1.1 36:-2.6499999 37:0.41 38:-0.56 39:0.38 40:0.41 41:-0.56 42:0.38 43:-0.039999999 44:-0.099999994 45:1.3399999 46:-0.039999999 47:-0.099999994 48:1.3399999 49:-0.20999999 50:-0.25 51:0.14999999 52:-0.20999999 53:-0.25 54:0.14999999 55:-0.029999999 56:0.14 57:0.059999999 58:-0.029999999 59:0.14 60:0.059999999 61:0.48999998 62:0.22999999 63:0.51999998 64:0.48999998 65:0.22999999 66:0.51999998 67:0.28999999 68:-0.17999999 69:-0.34999999 70:0.28999999 71:-0.17999999 72:-0.34999999 73:-0.02 74:0.14999999 75:-0.62 76:-0.02 77:0.14999999 78:-0.62 79:0.07 80:0.69 81:0.25999999 82:0.07 83:0.69 84:0.25999999 85:-0.81999999 86:-0.02 87:-1.89 88:-0.81999999 89:-0.02 90:-1.89 91:1.64 92:-2.8599999 93:11.12 94:1.64 95:-2.8599999 96:11.12 97:-5.5899997 98:0.19999999 99:-14.62 100:-5.5899997 101:0.19999999 102:-14.62 103:3.1999998 104:-2.27 105:0.17 106:3.1999998 107:-2.27 108:0.17 109:-9.0799999 110:7.2599998 111:-1.16 112:-9.0799999 113:7.2599998 114:-1.16 115:-1.8199999 116:1.28 117:1.03 118:-1.8199999 119:1.28 120:1.03 121:1.28 122:-7.9899998 123:-5.3199997 124:1.28 125:-7.9899998 126:-5.3199997 127:-2.1199999 128:2.26 129:-1.91 130:16.34 131:0.98999995 132:23.109999 133:16.34 134:0.98999995 135:23.109999 136:-9.5 137:1.86 138:-6.9899998 139:-9.5 140:1.86 141:-6.9899998 142:19.779999 143:-6.1199999 144:23.459999 145:19.779999 146:-6.1199999 147:23.459999 148:-7.0799999 149:1.78 150:-11.41 
1 0.974936982250559 1:-0.14 2:0.14 3:-0.17 4:-0.14 5:0.14 6:-0.17 7:-0.19999999 8:0.26999998 9:0.34 10:-0.19999999 11:0.26999998 12:0.34 13:-0.089999996 14:-0.20999999 15:0.55000001 16:-0.089999996 17:-0.20999999 18:0.55000001 19:-0.07 20:-0.57999998 21:-1.4599999 22:-0.07 23:-0.57999998 24:-1.4599999 25:0.13 26:0.44999999 27:-0.38999999 28:0.13 29:0.44999999 30:-0.38999999 31:-0.039999999 32:0.45999998 33:0.31999999 34:-0.039999999 35:0.45999998 36:0.31999999 37:-0.34 38:-0.22 39:0.25 40:-0.34 41:-0.22 42:0.25 43:0.93000001 44:1.1799999 45:-0.16 46:0.93000001 47:1.1799999 48:-0.16 49:-0.83999997 50:0.22 51:0.47 52:-0.83999997 53:0.22 54:0.47 55:-1.91 56:-2.23 57:0.56999999 58:-1.91 59:-2.23 60:0.56999999 61:1.09 62:-0.51999998 63:0.38 64:1.09 65:-0.51999998 66:0.38 67:1.36 68:1.1999999 69:-0.02 70:1.36 71:1.1999999 72:-0.02 73:-0.69999999 74:1.05 75:-0.28999999 76:-0.69999999 77:1.05 78:-0.28999999 79:-1.13 80:-0.5 81:0.45999998 82:-1.13 83:-0.5 84:0.45999998 85:0.13 86:-0.079999998 87:1.0699999 88:0.13 89:-0.079999998 90:1.0699999 91:-0.72999996 92:-0.66999996 93:-1.27 94:-0.72999996 95:-0.66999996 96:-1.27 97:0.28999999 98:-0.14999999 99:0.68000001 100:0.28999999 101:-0.14999999 102:0.68000001 103:0.68000001 104:0.63 105:-3.75 106:0.68000001 107:0.63 108:-3.75 109:0.089999996 110:1.3399999 111:1.36 112:0.089999996 113:1.3399999 114:1.36 115:-0.5 116:-0.97999996 117:3.3 118:-0.5 119:-0.97999996 120:3.3 121:0.099999994 122:1.25 123:-1.4599999 124:0.099999994 125:1.25 126:-1.4599999 127:0.72999996 128:-0.57999998 129:-1.8499999 130:0.72999996 131:-0.57999998 132:-1.8499999 133:-1.17 134:-1.15 135:-1.51 136:-1.17 137:-1.15 138:-1.51 139:-1.17 140:-1.15 141:-1.51 142:-1.17 143:-1.15 144:-1.51 145:2.3699999 146:0.22999999 147:1.8 148:2.3699999 149:0.22999999 150:1.8 
0.6468678665767394 0.08087819108403656 1:-0.35999998 2:0.96999997 3:-2.8599999 4:-0.35999998 5:0.96999997 6:-2.8599999 7:1.0699999 8:0.25999999 9:2.23 10:1.0699999 11:0.25999999 12:2.23 13:-0.31 14:0.88999999 15:-4.3199997 16:-0.31 17:0.88999999 18:-4.3199997 19:2.1499999 20:-1.89 21:5.1099997 22:2.1499999 23:-1.89 24:5.1099997 25:-2.73 26:0.87 27:-5.7599998 28:3.5799999 29:-5.1799998 30:1.8399999 31:3.5799999 32:-5.1799998 33:1.8399999 34:-4.73 35:4.2599998 36:-3.8399999 37:-4.73 38:4.2599998 39:-3.8399999 40:1.12 41:0.39999998 42:-1.89 43:1.12 44:0.39999998 45:-1.89 46:1.92 47:2.1800001 48:5.4400001 49:1.92 50:2.1800001 51:5.4400001 52:-5.77 53:-4.5699997 54:-7.3299999 55:-5.77 56:-4.5699997 57:-7.3299999 58:3.77 59:-1.8499999 60:0.17999999 61:3.77 62:-1.8499999 63:0.17999999 64:-7.1399999 65:5.4200001 66:-3.0899999 67:-7.1399999 68:5.4200001 69:-3.0899999 70:1.63 71:-0.38999999 72:4.8899999 73:1.63 74:-0.38999999 75:4.8899999 76:0.16 77:-3.5599999 78:-8.8000002 79:0.16 80:-3.5599999 81:-8.8000002 82:0.62 83:-1.55 84:0.96999997 85:0.62 86:-1.55 87:0.96999997 88:4.4499998 89:7.77 90:11.099999 91:4.4499998 92:7.77 93:11.099999 94:-4.9899998 95:-2.8999999 96:-4.8599997 97:-4.9899998 98:-2.8999999 99:-4.8599997 100:7.9199996 101:3.1999998 102:16.92 103:7.9199996 104:3.1999998 105:16.92 106:-9.4499998 107:-3.8099999 108:-12.9 109:-9.4499998 110:-3.8099999 111:-12.9 112:6.9899998 113:5.3899999 114:7.6299996 115:6.9899998 116:5.3899999 117:7.6299996 118:-6.8899999 119:0.089999996 120:-6.0499997 121:-6.8899999 122:0.089999996 123:-6.0499997 124:-0.02 125:1.42 126:8.2299995 127:-0.02 128:1.42 129:8.2299995 130:-0.87 131:-2.4299998 132:-13.11 133:-0.87 134:-2.4299998 135:-13.11 136:2.99 137:1.5899999 138:5.4699998 139:2.99 140:1.5899999 141:5.4699998 142:-1.62 143:0.25999999 144:-8.6599998 145:-1.62 146:0.25999999 147:-8.6599998 148:-4.75 149:4.02 150:9.6700001 
0.6470303055328884 0.08029281829609151 1:0.059999999 2:-0.61000001 3:-3.4099998 4:0.059999999 5:-0.61000001 6:-3.4099998 7:-3.0999999 8:3.8899999 9:-0.71999997 10:-3.0999999 11:3.8899999 12:-0.71999997 13:4.7799997 14:-5.3399997 15:8.4799995 16:4.7799997 17:-5.3399997 18:8.4799995 19:-0.95999998 20:0.059999999 21:-5.6099997 22:-0.95999998 23:0.059999999 24:-5.6099997 25:2.79 26:3.52 27:9.5 28:2.79 29:3.52 30:9.5 31:-5.6299996 32:-0.34 33:-8.1499996 34:-5.6299996 35:-0.34 36:-8.1499996 37:3.72 38:-1.0799999 39:24.549999 40:3.72 41:-1.0799999 42:24.549999 43:-2.77 44:-0.69999999 45:-12.389999 46:-2.77 47:-0.69999999 48:-12.389999 49:3.1199999 50:4.3699999 51:5.3699999 52:3.1199999 53:4.3699999 54:5.3699999 55:-3.6999998 56:0.91999996 57:-3.5899999 58:-3.6999998 59:0.91999996 60:-3.5899999 61:-1.42 62:-0.20999999 63:1.79 64:-1.42 65:-0.20999999 66:1.79 67:7.2799997 68:-6.4400001 69:3.1099999 70:7.2799997 71:-6.4400001 72:3.1099999 73:-2.0599999 74:-0.34999999 75:-3.8999999 76:-2.0599999 77:-0.34999999 78:-3.8999999 79:5.0699997 80:5.98 81:3.3599999 82:5.0699997 83:5.98 84:3.3599999 85:-8.3599997 86:-2.3799999 87:-6.0899997 88:-8.3599997 89:-2.3799999 90:-6.0899997 91:-0.63999999 92:4.8299999 93:8.29 94:-0.63999999 95:4.8299999 96:8.29 97:0.88999999 98:-6.48 99:-16.75 100:0.88999999 101:-6.48 102:-16.75 103:3 104:1.3399999 105:3.74 106:3 107:1.3399999 108:3.74 109:-6.3999996 110:2.7 111:-8.1499996 112:-6.3999996 113:2.7 114:-8.1499996 115:1.03 116:3.6299999 117:1.02 118:1.03 119:3.6299999 120:1.02 121:3.23 122:-5.6399999 123:-2.74 124:3.23 125:-5.6399999 126:-2.74 127:-1.04 128:0.37 129:-4.5999999 130:-0.87 131:-2.1199999 132:0.14999999 133:-0.87 134:-2.1199999 135:0.14999999 136:-0.029999999 137:2.0599999 138:-0.83999997 139:-0.029999999 140:2.0599999 141:-0.83999997 142:-2.3899999 143:0.55000001 144:8.7399998 145:-2.3899999 146:0.55000001 147:8.7399998 148:1.09 149:-2.5699999 150:-7.1099997 
0.6466980680867574 0.0808831829490128 1:0.22 2:0.41999999 3:-0.45999998 4:0.22 5:0.41999999 6:-0.45999998 7:-1 8:0.35999998 9:-0.78999996 10:-1 11:0.35999998 12:-0.78999996 13:1.03 14:-2.76 15:3.54 16:1.03 17:-2.76 18:3.54 19:0.44 20:0.88999999 21:-3.4499998 22:0.44 23:0.88999999 24:-3.4499998 25:2.97 26:0.0099999998 27:0.66999996 28:2.97 29:0.0099999998 30:0.66999996 31:-4.6100001 32:3.27 33:-1.64 34:-4.6100001 35:3.27 36:-1.64 37:0.099999994 38:-1.4399999 39:6.0499997 40:0.099999994 41:-1.4399999 42:6.0499997 43:-0.68000001 44:-3.03 45:-8.6399994 46:-0.68000001 47:-3.03 48:-8.6399994 49:0.55000001 50:0.31999999 51:0.66999996 52:0.55000001 53:0.31999999 54:0.66999996 55:-0.41 56:1.05 57:0.45999998 58:-0.41 59:1.05 60:0.45999998 61:-2.71 62:-0.099999994 63:-0.53999996 64:-2.71 65:-0.099999994 66:-0.53999996 67:2.1099999 68:2.1599998 69:8.8299999 70:2.1099999 71:2.1599998 72:8.8299999 73:-0.61000001 74:-2.7 75:-9.5799999 76:-0.61000001 77:-2.7 78:-9.5799999 79:1.74 80:1.3 81:7.1499996 82:1.74 83:1.3 84:7.1499996 85:-2.9199998 86:0.28999999 87:-4.9699998 88:-2.9199998 89:0.28999999 90:-4.9699998 91:-0.84999996 92:0.78999996 93:1.0599999 94:-0.84999996 95:0.78999996 96:1.0599999 97:2.3399999 98:-4 99:7.7599998 100:2.3399999 101:-4 102:7.7599998 103:-1.09 104:-0.51999998 105:-6.1599998 106:-1.09 107:-0.51999998 108:-6.1599998 109:2.1199999 110:4.4499998 111:10.91 112:2.1199999 113:4.4499998 114:10.91 115:-3.5999999 116:-1.52 117:-8.1700001 118:-3.5999999 119:-1.52 120:-8.1700001 121:-1.36 122:4.3899999 123:4.27 124:-1.36 125:4.3899999 126:4.27 127:1.51 128:-3.8699999 129:-8.75 130:1.51 131:-3.8699999 132:-8.75 133:0.94 134:0.42999998 135:1.4499999 136:0.94 137:0.42999998 138:1.4499999 139:-3.9599998 140:0.72999996 141:-4.7999997 142:-3.9599998 143:0.72999996 144:-4.7999997 145:-0.95999998 146:0.61000001 147:-1.1799999 148:-0.95999998 149:0.61000001 150:-1.1799999 
0.6468934278067147 0.08092121062093363 1:0.029999999 2:-0.52999997 3:-2.2 4:0.93000001 5:0.53999996 6:4.27 7:0.93000001 8:0.53999996 9:4.27 10:-0.41999999 11:0.22 12:-3.79 13:-0.41999999 14:0.22 15:-3.79 16:-0.88999999 17:2.49 18:-0.5 19:-0.88999999 20:2.49 21:-0.5 22:1.5899999 23:-4.3600001 24:5.6099997 25:1.5899999 26:-4.3600001 27:5.6099997 28:-0.87 29:-0.48999998 30:-4 31:-0.87 32:-0.48999998 33:-4 34:3.1399999 35:1.63 36:3.3799999 37:3.1399999 38:1.63 39:3.3799999 40:-1.1999999 41:0.44999999 42:-2.2 43:-1.1999999 44:0.44999999 45:-2.2 46:-0.56 47:1.49 48:0.44 49:-0.56 50:1.49 51:0.44 52:2.23 53:-3.1799998 54:-1.3299999 55:2.23 56:-3.1799998 57:-1.3299999 58:-1.5699999 59:-1.6899999 60:-4.0899997 61:-1.5699999 62:-1.6899999 63:-4.0899997 64:3.8199999 65:3.23 66:7.0799999 67:3.8199999 68:3.23 69:7.0799999 70:-5.4899998 71:-0.94999999 72:-5.29 73:-5.4899998 74:-0.94999999 75:-5.29 76:2.7 77:3.0899999 78:4.79 79:2.7 80:3.0899999 81:4.79 82:-0.38 83:-5.3800001 84:-10.4 85:-0.38 86:-5.3800001 87:-10.4 88:1.1899999 89:0.29999998 90:2.46 91:1.1899999 92:0.29999998 93:2.46 94:-0.58999997 95:3 96:2.6199999 97:-0.58999997 98:3 99:2.6199999 100:-2.04 101:-0.55000001 102:-4.9899998 103:-2.04 104:-0.55000001 105:-4.9899998 106:2.3 107:-1.5599999 108:9.8099995 109:2.3 110:-1.5599999 111:9.8099995 112:-1.92 113:-2.0699999 114:-7.4199996 115:-1.92 116:-2.0699999 117:-7.4199996 118:3.75 119:3.9599998 120:10.83 121:3.75 122:3.9599998 123:10.83 124:-3.74 125:-1.4599999 126:-7.0799999 127:-3.74 128:-1.4599999 129:-7.0799999 130:-0.63999999 131:2.0699999 132:1.77 133:-0.63999999 134:2.0699999 135:1.77 136:2.49 137:-4.1700001 138:2.8599999 139:2.49 140:-4.1700001 141:2.8599999 142:-0.66999996 143:-0.039999999 144:-2.4299998 145:-0.66999996 146:-0.039999999 147:-2.4299998 148:1.2099999 149:1.9699999 150:-0.38 
0.6467033161169746 0.08096072721048825 1:0.34 2:-1.38 3:-4.1999998 4:0.34 5:-1.38 6:-4.1999998 7:0.90999997 8:-1.35 9:5.6599998 10:0.90999997 11:-1.35 12:5.6599998 13:-0.76999998 14:0.17999999 15:-2.0999999 16:-0.76999998 17:0.17999999 18:-2.0999999 19:-3.3399999 20:2.3299999 21:-0.02 22:-3.3399999 23:2.3299999 24:-0.02 25:4.1799998 26:-3.0799999 27:9.3899994 28:4.1799998 29:-3.0799999 30:9.3899994 31:-1.6999999 32:-0.98999995 33:-7.2199998 34:-1.6999999 35:-0.98999995 36:-7.2199998 37:2.3599999 38:0.71999997 39:4.2999997 40:2.3599999 41:0.71999997 42:4.2999997 43:-3.1499999 44:0.29999998 45:-3.5799999 46:-3.1499999 47:0.29999998 48:-3.5799999 49:-0.59999996 50:2.0599999 51:3.6799998 52:-0.59999996 53:2.0599999 54:3.6799998 55:1.55 56:-4.4200001 57:-8.9299994 58:1.55 59:-4.4200001 60:-8.9299994 61:0.58999997 62:0.57999998 63:-0.37 64:0.58999997 65:0.57999998 66:-0.37 67:0.42999998 68:2.8399999 69:2.95 70:0.42999998 71:2.8399999 72:2.95 73:-2.8799999 74:-0.039999999 75:-2.3999999 76:-2.8799999 77:-0.039999999 78:-2.3999999 79:0.16 80:-1.37 81:6.8399997 82:0.16 83:-1.37 84:6.8399997 85:2.8099999 86:-0.96999997 87:-10.2 88:2.8099999 89:-0.96999997 90:-10.2 91:1.99 92:0.29999998 93:7.1900001 94:1.99 95:0.29999998 96:7.1900001 97:-2.0999999 98:1.3199999 99:-3.9399998 100:-2.0999999 101:1.3199999 102:-3.9399998 103:-1.3199999 104:0.099999994 105:-0.25 106:-1.3199999 107:0.099999994 108:-0.25 109:1.6799999 110:-2.8599999 111:4.4499998 112:1.6799999 113:-2.8599999 114:4.4499998 115:0.089999996 116:-1.04 117:-1.3 118:0.089999996 119:-1.04 120:-1.3 121:1.4 122:1.54 123:1.7099999 124:1.4 125:1.54 126:1.7099999 127:-2.48 128:1.54 129:-1.38 130:-2.48 131:1.54 132:-1.38 133:-1.41 134:0.50999999 135:-1.1 136:-1.41 137:0.50999999 138:-1.1 139:4.9000001 140:-5.4299998 141:16.959999 142:4.9000001 143:-5.4299998 144:16.959999 145:-1.42 146:-0.32999998 147:-8.9299994 148:-1.42 149:-0.32999998 150:-8.9299994 
0.647063951405494 0.08095613638228684 1:-0.68000001 2:1.04 3:-2.21 4:-0.68000001 5:1.04 6:-2.21 7:-2.24 8:1.5799999 9:4.9899998 10:-2.24 11:1.5799999 12:4.9899998 13:1.6799999 14:-2.04 15:-6.8799996 16:1.6799999 17:-2.04 18:-6.8799996 19:1 20:0.38999999 21:1.0599999 22:1 23:0.38999999 24:1.0599999 25:-0.039999999 26:0.26999998 27:-0.48999998 28:-0.039999999 29:0.26999998 30:-0.48999998 31:-1.65 32:1.11 33:-2.5699999 34:-1.65 35:1.11 36:-2.5699999 37:-0.78999996 38:0.14999999 39:6.8399997 40:-0.78999996 41:0.14999999 42:6.8399997 43:-0.089999996 44:-1.49 45:-8.2299995 46:-0.089999996 47:-1.49 48:-8.2299995 49:1.25 50:1.77 51:5.3899999 52:1.25 53:1.77 54:5.3899999 55:-2.55 56:0.94 57:-3.8199999 58:-2.55 59:0.94 60:-3.8199999 61:-2.0599999 62:0.58999997 63:-1.0799999 64:-2.0599999 65:0.58999997 66:-1.0799999 67:7.4199996 68:-2.6900001 69:12.63 70:7.4199996 71:-2.6900001 72:12.63 73:-2.0599999 74:0.38 75:-5.0799999 76:-2.0599999 77:0.38 78:-5.0799999 79:1.61 80:0.38999999 81:-0.89999998 82:1.61 83:0.38999999 84:-0.89999998 85:1.52 86:2.5599999 87:1.8499999 88:1.52 89:2.5599999 90:1.8499999 91:-2.5599999 92:-0.44999999 93:-1.41 94:-2.5599999 95:-0.44999999 96:-1.41 97:0.97999996 98:-2.95 99:4.2799997 100:0.97999996 101:-2.95 102:4.2799997 103:1.74 104:-0.16 105:-7.04 106:1.74 107:-0.16 108:-7.04 109:0.66999996 110:0.25999999 111:0.91999996 112:0.66999996 113:0.25999999 114:0.91999996 115:-4.1799998 116:2.1299999 117:-0.59999996 118:-4.1799998 119:2.1299999 120:-0.59999996 121:-1.8099999 122:0.59999996 123:-1.74 124:-1.8099999 125:0.59999996 126:-1.74 127:4.8199997 128:-1.4699999 129:8.7399998 130:4.8199997 131:-1.4699999 132:8.7399998 133:-4.04 134:-1.76 135:-10.309999 136:-4.04 137:-1.76 138:-10.309999 139:2.4299998 140:-0.19999999 141:2.25 142:2.4299998 143:-0.19999999 144:2.25 145:-4.7999997 146:4.2599998 147:-5.9200001 148:-4.7999997 149:4.2599998 150:-5.9200001 
0.6470342807624863 0.08088124626192776 1:-1.04 2:1.89 3:0.029999999 4:4.5799999 5:-2.8099999 6:9.8499994 7:4.5799999 8:-2.8099999 9:9.8499994 10:-1.48 11:-0.94999999 12:-7.25 13:-1.48 14:-0.94999999 15:-7.25 16:2.6699998 17:1.3 18:8.1300001 19:2.6699998 20:1.3 21:8.1300001 22:-2.22 23:0 24:-2.3099999 25:-2.22 26:0 27:-2.3099999 28:-1.1999999 29:1.3399999 30:-1.0699999 31:-1.1999999 32:1.3399999 33:-1.0699999 34:3.9299998 35:-2.79 36:2.4299998 37:3.9299998 38:-2.79 39:2.4299998 40:-1.37 41:-1.05 42:-6.1500001 43:-1.37 44:-1.05 45:-6.1500001 46:4.1100001 47:1.9699999 48:10.54 49:4.1100001 50:1.9699999 51:10.54 52:-3.5599999 53:-0.38999999 54:-6.7199998 55:-3.5599999 56:-0.38999999 57:-6.7199998 58:-0.099999994 59:2 60:1.62 61:-0.099999994 62:2 63:1.62 64:4.2399998 65:-5.2599998 66:-2.1099999 67:4.2399998 68:-5.2599998 69:-2.1099999 70:-1.75 71:-0.16 72:-3.5599999 73:-1.75 74:-0.16 75:-3.5599999 76:2.49 77:2.5 78:7.6099997 79:2.49 80:2.5 81:7.6099997 82:-3.4199998 83:0.32999998 84:-6.7999997 85:-3.4199998 86:0.32999998 87:-6.7999997 88:-1.48 89:1.26 90:3.6099999 91:-1.48 92:1.26 93:3.6099999 94:4.54 95:-3.75 96:-10.96 97:4.54 98:-3.75 99:-10.96 100:-0.69999999 101:1.77 102:-0.63 103:-0.69999999 104:1.77 105:-0.63 106:1.27 107:0.94 108:8.0900002 109:1.27 110:0.94 111:8.0900002 112:-3.48 113:0.17 114:-5.6099997 115:-3.48 116:0.17 117:-5.6099997 118:1.9 119:2.52 120:10.92 121:1.9 122:2.52 123:10.92 124:0.22 125:-1.4299999 126:-10.05 127:0.22 128:-1.4299999 129:-10.05 130:0.34 131:3.1699998 132:2.8499999 133:0.34 134:3.1699998 135:2.8499999 136:0.81 137:0.98999995 138:-1.53 139:0.81 140:0.98999995 141:-1.53 142:-2.8899999 143:-0.14999999 144:3.9499998 145:-2.8899999 146:-0.14999999 147:3.9499998 148:3.5599999 149:-2.6499999 150:-3.5599999 
0.6468857370890542 0.08123675129259933 1:0.37 2:0.69 3:-0.039999999 4:0.37 5:0.69 6:-0.039999999 7:0.68000001 8:-0.41999999 9:1.1999999 10:0.68000001 11:-0.41999999 12:1.1999999 13:-0.63 14:1.03 15:-1.0599999 16:-0.63 17:1.03 18:-1.0599999 19:-0.5 20:0.34999999 21:2.01 22:-0.5 23:0.34999999 24:2.01 25:0.059999999 26:-0.47999999 27:-3.1599998 28:0.059999999 29:-0.47999999 30:-3.1599998 31:0.41999999 32:-0.17 33:-0.31999999 34:0.41999999 35:-0.17 36:-0.31999999 37:0.64999998 38:0.31 39:1.9 40:0.64999998 41:0.31 42:1.9 43:-0.63 44:0.41 45:-1.53 46:-0.63 47:0.41 48:-1.53 49:-1.3 50:0.71999997 51:4.3499999 52:-1.3 53:0.71999997 54:4.3499999 55:-0.47 56:-0.31 57:-0.14999999 58:-0.47 59:-0.31 60:-0.14999999 61:-0.53999996 62:-3.1399999 63:-4.7399998 64:-0.53999996 65:-3.1399999 66:-4.7399998 67:2.8799999 68:4.0499997 69:2.53 70:2.8799999 71:4.0499997 72:2.53 73:-3.9399998 74:1.86 75:-6.0099998 76:-3.9399998 77:1.86 78:-6.0099998 79:0.5 80:0.50999999 81:7.1399999 82:0.5 83:0.50999999 84:7.1399999 85:1.4499999 86:-5.0599999 87:-9.3599997 88:1.4499999 89:-5.0599999 90:-9.3599997 91:-0.11 92:0.44999999 93:-1.6799999 94:0.34 95:1.51 96:2.6199999 97:0.34 98:1.51 99:2.6199999 100:-3.04 101:1.23 102:-3.7099998 103:-3.04 104:1.23 105:-3.7099998 106:-1.02 107:0.049999997 108:4.7199998 109:-1.02 110:0.049999997 111:4.7199998 112:3.26 113:-2.1699998 114:-12.27 115:3.26 116:-2.1699998 117:-12.27 118:-0.53999996 119:0.65999997 120:-0.72999996 121:-0.53999996 122:0.65999997 123:-0.72999996 124:-1.55 125:2.3099999 126:-1.1999999 127:-1.55 128:2.3099999 129:-1.1999999 130:-2.8299999 131:0 132:-4.6199999 133:-2.8299999 134:0 135:-4.6199999 136:1.63 137:-3.55 138:17.619999 139:1.63 140:-3.55 141:17.619999 142:2.52 143:1.4399999 144:-2.3999999 145:2.52 146:1.4399999 147:-2.3999999 148:-0.82999998 149:0 150:-10.429999 
0.6467513819743238 0.08079924960633823 1:-0.029999999 2:0.55000001 3:-1.14 4:-0.029999999 5:0.55000001 6:-1.14 7:1.02 8:0.50999999 9:-0.049999997 10:1.02 11:0.50999999 12:-0.049999997 13:0.55000001 14:0.16 15:-1.4399999 16:0.55000001 17:0.16 18:-1.4399999 19:-3.8199999 20:1.67 21:1.35 22:-3.8199999 23:1.67 24:1.35 25:1.5999999 26:-2.3299999 27:2.79 28:1.5999999 29:-2.3299999 30:2.79 31:-1.37 32:-1.89 33:-9.5100002 34:-1.37 35:-1.89 36:-9.5100002 37:5.6999998 38:4.3099999 39:14.099999 40:5.6999998 41:4.3099999 42:14.099999 43:-6.1500001 44:-0.65999997 45:-10.53 46:-6.1500001 47:-0.65999997 48:-10.53 49:0.85999995 50:0.68000001 51:6.5299997 52:0.85999995 53:0.68000001 54:6.5299997 55:2.6399999 56:-4.23 57:-6.4299998 58:2.6399999 59:-4.23 60:-6.4299998 61:-0.89999998 62:0.82999998 63:-2.9299998 64:-0.89999998 65:0.82999998 66:-2.9299998 67:1.62 68:1 69:3.4299998 70:1.62 71:1 72:3.4299998 73:-3.55 74:-0.07 75:-4.5099998 76:-3.55 77:-0.07 78:-4.5099998 79:0.14 80:1.87 81:5 82:0.14 83:1.87 84:5 85:1.9 86:-3.54 87:-8.9899998 88:1.9 89:-3.54 90:-8.9899998 91:-0.02 92:1.22 93:3.3299999 94:-0.02 95:1.22 96:3.3299999 97:0.61000001 98:0.90999997 99:-1.01 100:0.61000001 101:0.90999997 102:-1.01 103:-2.8499999 104:-0.29999998 105:-3.3699999 106:-2.8499999 107:-0.29999998 108:-3.3699999 109:1.48 110:2.24 111:10.27 112:1.48 113:2.24 114:10.27 115:-0.47 116:-3.0899999 117:-8.6099997 118:-0.47 119:-3.0899999 120:-8.6099997 121:2.28 122:1.42 123:4.1300001 124:2.28 125:1.42 126:4.1300001 127:-1.3399999 128:1.66 129:-0.88999999 130:-1.3399999 131:1.66 132:-0.88999999 133:-2.8599999 134:-0.32999998 135:-5.2599998 136:-2.8599999 137:-0.32999998 138:-5.2599998 139:2.29 140:1.4399999 141:4.7799997 142:2.29 143:1.4399999 144:4.7799997 145:0.76999998 146:-2.4400001 147:-6.5 148:0.76999998 149:-2.4400001 150:-6.5 
0.6475130991377488 0.08109758705684705 1:0.0099999998 2:-0.28 3:-4.27 4:0.0099999998 5:-0.28 6:-4.27 7:1.22 8:-0.16 9:3.8999999 10:1.22 11:-0.16 12:3.8999999 13:-0.83999997 14:0.039999999 15:-2.1900001 16:-0.83999997 17:0.039999999 18:-2.1900001 19:-1.7099999 20:1.05 21:-0.78999996 22:-1.7099999 23:1.05 24:-0.78999996 25:0.89999998 26:-0.85999995 27:4.7799997 28:0.89999998 29:-0.85999995 30:4.7799997 31:-0.55000001 32:-2.04 33:-6.2199998 34:-0.55000001 35:-2.04 36:-6.2199998 37:4.0499997 38:1.26 39:8.7699995 40:4.0499997 41:1.26 42:8.7699995 43:-2.6499999 44:0.029999999 45:-1.5999999 46:-2.6499999 47:0.029999999 48:-1.5999999 49:-2.74 50:0.38999999 51:-3.5899999 52:-2.74 53:0.38999999 54:-3.5899999 55:4.3600001 56:-2.3 57:6.8799996 58:4.3600001 59:-2.3 60:6.8799996 61:-1.77 62:-1.05 63:-4.3899999 64:-1.77 65:-1.05 66:-4.3899999 67:2.48 68:0.38999999 69:-1.3 70:2.48 71:0.38999999 72:-1.3 73:-1.74 74:3.04 75:4.4000001 76:-1.74 77:3.04 78:4.4000001 79:-2.6900001 80:-0.63 81:-1.49 82:-2.6900001 83:-0.63 84:-1.49 85:3.29 86:-2.95 87:-5.2399998 88:3.29 89:-2.95 90:-5.2399998 91:-0.66999996 92:1.14 93:-1.8399999 94:-0.66999996 95:1.14 96:-1.8399999 97:0.59999996 98:2.23 99:9.0999994 100:0.59999996 101:2.23 102:9.0999994 103:-1.54 104:-0.39999998 105:-5.2199998 106:-1.54 107:-0.39999998 108:-5.2199998 109:0.14 110:2.3299999 111:1.99 112:0.14 113:2.3299999 114:1.99 115:0.059999999 116:-4.1399999 117:-0.85999995 118:0.059999999 119:-4.1399999 120:-0.85999995 121:0.39999998 122:-0.63999999 123:-5.4299998 124:0.39999998 125:-0.63999999 126:-5.4299998 127:0.48999998 128:2.9299998 129:5.8099999 130:0.48999998 131:2.9299998 132:5.8099999 133:-1.5899999 134:1.3099999 135:-3.6899998 136:-1.5899999 137:1.3099999 138:-3.6899998 139:-1.89 140:0.099999994 141:3.6399999 142:-1.89 143:0.099999994 144:3.6399999 145:3.1999998 146:-4.1100001 147:0.22 148:3.1999998 149:-4.1100001 150:0.22 
0.6471828062005499 0.08094223054480107 1:-0.64999998 2:0.69 3:1.23 4:-0.64999998 5:0.69 6:1.23 7:0 8:-0.69 9:-1.29 10:0 11:-0.69 12:-1.29 13:0.69999999 14:1.0799999 15:-2.27 16:0.69999999 17:1.0799999 18:-2.27 19:1.9499999 20:-1.62 21:-1.9399999 22:1.9499999 23:-1.62 24:-1.9399999 25:-4.3699999 26:1.28 27:-3.6899998 28:-4.3699999 29:1.28 30:-3.6899998 31:0.97999996 32:2.02 33:9.8499994 34:0.97999996 35:2.02 36:9.8499994 37:-1.14 38:-3.6099999 39:-12.38 40:-1.14 41:-3.6099999 42:-12.38 43:2.54 44:0.53999996 45:3 46:2.54 47:0.53999996 48:3 49:1.26 50:0.51999998 51:6.4899998 52:1.26 53:0.51999998 54:6.4899998 55:-3.4499998 56:0.22 57:-8.8299999 58:-3.4499998 59:0.22 60:-8.8299999 61:1.04 62:1.16 63:4.23 64:1.04 65:1.16 66:4.23 67:1.9599999 68:-3.97 69:-7.6399999 70:1.9599999 71:-3.97 72:-7.6399999 73:0.56999999 74:1.52 75:-0.049999997 76:0.56999999 77:1.52 78:-0.049999997 79:0.53999996 80:1.3099999 81:1.39 82:0.53999996 83:1.3099999 84:1.39 85:-2.1599998 86:0.23999999 87:1.49 88:-2.1599998 89:0.23999999 90:1.49 91:0.13 92:0.64999998 93:2.8999999 94:0.13 95:0.64999998 96:2.8999999 97:0.97999996 98:-3.8799999 99:-2.45 100:0.97999996 101:-3.8799999 102:-2.45 103:-2.3599999 104:-0.099999994 105:-9.9200001 106:-2.3599999 107:-0.099999994 108:-9.9200001 109:2.1800001 110:2.0699999 111:8.8099995 112:2.1800001 113:2.0699999 114:8.8099995 115:-2.8 116:1.5999999 117:-5.3199997 118:-2.8 119:1.5999999 120:-5.3199997 121:0.22 122:0.47999999 123:0.91999996 124:0.22 125:0.47999999 126:0.91999996 127:1.38 128:-5.96 129:2.73 130:1.38 131:-5.96 132:2.73 133:-0.57999998 134:1.03 135:-4.7999997 136:-0.57999998 137:1.03 138:-4.7999997 139:0.059999999 140:2.5799999 141:1.05 142:0.059999999 143:2.5799999 144:1.05 145:-1.01 146:1.25 147:-0.69999999 148:-1.01 149:1.25 150:-0.69999999 
0.6468570710242373 0.08128873881333075 1:-0.099999994 2:-1.52 3:-9.54 4:2.76 5:0.35999998 6:7.3499999 7:2.76 8:0.35999998 9:7.3499999 10:-2.3799999 11:0.78999996 12:-6.3099999 13:-2.3799999 14:0.78999996 15:-6.3099999 16:0.71999997 17:1.04 18:5.3800001 19:0.71999997 20:1.04 21:5.3800001 22:-0.25999999 23:-1.7199999 24:-5.1399999 25:-0.25999999 26:-1.7199999 27:-5.1399999 28:2.04 29:-0.16 30:2.8899999 31:2.04 32:-0.16 33:2.8899999 34:-2.45 35:0.58999997 36:-2.95 37:-2.45 38:0.58999997 39:-2.95 40:-2.05 41:-0.059999999 42:0.41999999 43:-2.05 44:-0.059999999 45:0.41999999 46:4.0599999 47:-2.55 48:4.48 49:4.0599999 50:-2.55 51:4.48 52:-2.29 53:-0.39999998 54:-5.3399997 55:-2.29 56:-0.39999998 57:-5.3399997 58:3.0799999 59:1.04 60:3 61:3.0799999 62:1.04 63:3 64:-3.48 65:1.55 66:-0.089999996 67:-3.48 68:1.55 69:-0.089999996 70:-0.58999997 71:2.5899999 72:-1.4399999 73:-0.58999997 74:2.5899999 75:-1.4399999 76:1.42 77:-3.78 78:-9.8099995 79:1.42 80:-3.78 81:-9.8099995 82:0.74000001 83:0.089999996 84:0.69 85:0.74000001 86:0.089999996 87:0.69 88:-3.46 89:4 90:-0.28999999 91:-3.46 92:4 93:-0.28999999 94:-2.8599999 95:-1.42 96:-1.23 97:-2.8599999 98:-1.42 99:-1.23 100:5.8299999 101:-4.6799998 102:0.28 103:5.8299999 104:-4.6799998 105:0.28 106:-0.71999997 107:0.85999995 108:-2.0999999 109:-0.71999997 110:0.85999995 111:-2.0999999 112:-0.56 113:0.26999998 114:1.1899999 115:-0.56 116:0.26999998 117:1.1899999 118:-2.01 119:1.36 120:-2.51 121:-2.01 122:1.36 123:-2.51 124:2.01 125:-0.87 126:11.63 127:2.01 128:-0.87 129:11.63 130:3.29 131:-1.51 132:-1.17 133:3.29 134:-1.51 135:-1.17 136:-0.51999998 137:0.44 138:-5.0899997 139:-0.51999998 140:0.44 141:-5.0899997 142:-0.26999998 143:1.2099999 144:3.24 145:-0.26999998 146:1.2099999 147:3.24 148:-2.53 149:1.5 150:-1.27 
0.6467377676539914 0.08082409333429769 1:0.88999999 2:0 3:-2.8099999 4:-1.5 5:0.47 6:-1.36 7:-1.5 8:0.47 9:-1.36 10:-0.83999997 11:0.78999996 12:3.8999999 13:-0.83999997 14:0.78999996 15:3.8999999 16:-0.81 17:-0.88999999 18:-4.4200001 19:-0.81 20:-0.88999999 21:-4.4200001 22:0.98999995 23:0.52999997 24:0.19 25:0.98999995 26:0.52999997 27:0.19 28:0.22999999 29:0.89999998 30:3.53 31:0.22999999 32:0.89999998 33:3.53 34:-2.8899999 35:0.44999999 36:-4.54 37:-2.8899999 38:0.44999999 39:-4.54 40:1.86 41:-3.5799999 42:11.59 43:1.86 44:-3.5799999 45:11.59 46:1.17 47:1.66 48:-4.8099999 49:1.17 50:1.66 51:-4.8099999 52:1.52 53:0 54:1.39 55:1.52 56:0 57:1.39 58:-3.23 59:2.5699999 60:-2.3099999 61:-3.23 62:2.5699999 63:-2.3099999 64:-0.90999997 65:0.029999999 66:-0.69999999 67:-0.90999997 68:0.029999999 69:-0.69999999 70:3.3399999 71:-4.7799997 72:12.179999 73:3.3399999 74:-4.7799997 75:12.179999 76:-0.77999997 77:-0.41 78:-8.0199995 79:1.65 80:2.8699999 81:4.4099998 82:1.65 83:2.8699999 84:4.4099998 85:1.65 86:2.8699999 87:4.4099998 88:-3.1199999 89:-0.41999999 90:-3.29 91:-0.38 92:2.99 93:0.039999999 94:-0.38 95:2.99 96:0.039999999 97:2.8399999 98:-4.8299999 99:-8.4799995 100:2.8399999 101:-4.8299999 102:-8.4799995 103:-1.13 104:0.94 105:-2.0799999 106:-1.13 107:0.94 108:-2.0799999 109:0.70999998 110:1.9399999 111:3.05 112:0.70999998 113:1.9399999 114:3.05 115:-2.9099998 116:-0.31999999 117:-3.8099999 118:-2.9099998 119:-0.31999999 120:-3.8099999 121:0.38 122:2.8299999 123:2.95 124:0.38 125:2.8299999 126:2.95 127:0.62 128:-3.8199999 129:-7.5799999 130:0.62 131:-3.8199999 132:-7.5799999 133:0.59999996 134:2.49 135:2.8499999 136:0.59999996 137:2.49 138:2.8499999 139:0.22999999 140:-1.51 141:-5.3399997 142:0.22999999 143:-1.51 144:-5.3399997 145:-2.48 146:2.0699999 147:-0.099999994 148:-2.48 149:2.0699999 150:-0.099999994 
0.6468755947243685 0.08114073121834817 1:0.34 2:-0.0099999998 3:2.78 4:0.47 5:-0.50999999 6:-3.0699999 7:0.47 8:-0.50999999 9:-3.0699999 10:1.01 11:-0.07 12:4.6199999 13:1.01 14:-0.07 15:4.6199999 16:0.42999998 17:-0.079999998 18:-3.26 19:0.42999998 20:-0.079999998 21:-3.26 22:-3.25 23:1.24 24:-1.39 25:-3.25 26:1.24 27:-1.39 28:2.49 29:-0.79999995 30:9.5500002 31:2.49 32:-0.79999995 33:9.5500002 34:-0.31 35:-2.48 36:-7.71 37:-0.31 38:-2.48 39:-7.71 40:2.3399999 41:1.25 42:1.7199999 43:2.3399999 44:1.25 45:1.7199999 46:-5.0999999 47:1.78 48:-3.6099999 49:-5.0999999 50:1.78 51:-3.6099999 52:-0.79999995 53:-0.51999998 54:-2.1900001 55:-0.79999995 56:-0.51999998 57:-2.1900001 58:4.8399997 59:-3.6699998 60:2.6599998 61:4.8399997 62:-3.6699998 63:2.6599998 64:-0.039999999 65:-0.69999999 66:-2.98 67:-0.039999999 68:-0.69999999 69:-2.98 70:2.02 71:2.3599999 72:5.1900001 73:2.02 74:2.3599999 75:5.1900001 76:-3.6399999 77:0.11 78:-4.3499999 79:-3.6399999 80:0.11 81:-4.3499999 82:0.22999999 83:1.03 84:2.26 85:0.22999999 86:1.03 87:2.26 88:3.6099999 89:-4.5099998 90:15.29 91:3.6099999 92:-4.5099998 93:15.29 94:-1.73 95:0.84999996 96:-10.09 97:4.6100001 98:1.8299999 99:9.1199999 100:4.6100001 101:1.8299999 102:9.1199999 103:-4.3399997 104:-0.02 105:-5.3499999 106:-4.3399997 107:-0.02 108:-5.3499999 109:0.17 110:2.99 111:1.49 112:0.17 113:2.99 114:1.49 115:5.8499999 116:-6.8299999 117:1.9299999 118:5.8499999 119:-6.8299999 120:1.9299999 121:-1.48 122:-0.34 123:-4.4499998 124:-1.48 125:-0.34 126:-4.4499998 127:0.61000001 128:3.1899998 129:4.8199997 130:0.61000001 131:3.1899998 132:4.8199997 133:-4.1399999 134:1.3099999 135:-3.1199999 136:-4.1399999 137:1.3099999 138:-3.1199999 139:0.11 140:1.9399999 141:7.2599998 142:0.11 143:1.9399999 144:7.2599998 145:0.34 146:-2.77 147:-10.45 148:0.34 149:-2.77 150:-10.45 
0.6469929131117751 0.08118859137297921 1:1.7099999 2:0.32999998 3:2.1699998 4:1.7099999 5:0.32999998 6:2.1699998 7:-1.92 8:1.76 9:-3.0999999 10:-1.92 11:1.76 12:-3.0999999 13:-0.76999998 14:-1.9699999 15:3.76 16:-0.76999998 17:-1.9699999 18:3.76 19:-0.25999999 20:-0.56 21:-6.4299998 22:-0.25999999 23:-0.56 24:-6.4299998 25:3.3399999 26:-0.34999999 27:0.31 28:3.3399999 29:-0.34999999 30:0.31 31:-5.7999997 32:3.5999999 33:-5.1799998 34:-5.7999997 35:3.5999999 36:-5.1799998 37:-2.0599999 38:-2.04 39:0 40:-2.0599999 41:-2.04 42:0 43:-0.16 44:-5.3099999 45:-10.309999 46:-0.16 47:-5.3099999 48:-10.309999 49:1.55 50:0.31999999 51:-1.9499999 52:1.55 53:0.31999999 54:-1.9499999 55:-8.7799997 56:3.98 57:-7.8599997 58:-8.7799997 59:3.98 60:-7.8599997 61:-8.7799997 62:3.98 63:-7.8599997 64:-8.7799997 65:3.98 66:-7.8599997 67:2.0999999 68:1.67 69:4.6799998 70:2.0999999 71:1.67 72:4.6799998 73:-1.99 74:-6.9299998 75:-14.08 76:-1.99 77:-6.9299998 78:-14.08 79:2.1299999 80:1.9699999 81:1.13 82:2.1299999 83:1.9699999 84:1.13 85:-8.9099998 86:2.01 87:-10.52 88:-8.9099998 89:2.01 90:-10.52 91:1.76 92:2.8699999 93:4.2399998 94:1.76 95:2.8699999 96:4.2399998 97:0.75999999 98:-8.5799999 99:-16.99 100:0.75999999 101:-8.5799999 102:-16.99 103:0.47999999 104:1.16 105:0.5 106:0.47999999 107:1.16 108:0.5 109:-7.8699999 110:1.4699999 111:-11.05 112:-7.8699999 113:1.4699999 114:-11.05 115:1.0699999 116:3.1699998 117:5.75 118:1.0699999 119:3.1699998 120:5.75 121:-0.95999998 122:-4.3899999 123:-15.27 124:-0.95999998 125:-4.3899999 126:-15.27 127:2.5899999 128:2.47 129:8.4099998 130:2.5899999 131:2.47 132:8.4099998 133:-2.6699998 134:-0.19 135:-6.6700001 136:-2.6699998 137:-0.19 138:-6.6700001 139:-3.1499999 140:2.51 141:8.25 142:-3.1499999 143:2.51 144:8.25 145:0.59999996 146:-4.8199997 147:-11.7 148:2.9399998 149:1.92 150:1.9499999 
0.6474380504544694 0.08122908311886937 1:0.75999999 2:1.0699999 3:2.96 4:-2.7 5:1.8399999 6:-3.6399999 7:-2.7 8:1.8399999 9:-3.6399999 10:0.44999999 11:-1.4399999 12:8.8199997 13:0.44999999 14:-1.4399999 15:8.8199997 16:0.089999996 17:-0.20999999 18:-6.3299999 19:0.089999996 20:-0.20999999 21:-6.3299999 22:2.8699999 23:-0.089999996 24:0.41 25:2.8699999 26:-0.089999996 27:0.41 28:-5.54 29:3.6899998 30:-4.9400001 31:-5.54 32:3.6899998 33:-4.9400001 34:0.79999995 35:-0.19 36:1.9499999 37:0.79999995 38:-0.19 39:1.9499999 40:-1.62 41:-4.48 42:-9.1300001 43:-1.62 44:-4.48 45:-9.1300001 46:0.72999996 47:0.25 48:0.20999999 49:0.72999996 50:0.25 51:0.20999999 52:-5.9200001 53:3.02 54:-1.66 55:-5.9200001 56:3.02 57:-1.66 58:-1.38 59:-0.44999999 60:0.39999998 61:-1.38 62:-0.44999999 63:0.39999998 64:-1.4399999 65:-6.1399999 66:-8.8999996 67:-1.4399999 68:-6.1399999 69:-8.8999996 70:0.22999999 71:1.28 72:-1.16 73:0.22999999 74:1.28 75:-1.16 76:-4.9200001 77:4.3299999 78:-1.3199999 79:-4.9200001 80:4.3299999 81:-1.3199999 82:3.05 83:-5.79 84:-0.34 85:3.05 86:-5.79 87:-0.34 88:-0.42999998 89:-3.49 90:-9.0199995 91:-0.42999998 92:-3.49 93:-9.0199995 94:0.34999999 95:0.47 96:0.61000001 97:0.34999999 98:0.47 99:0.61000001 100:-6.0299997 101:4.3199997 102:-5.0899997 103:-6.0299997 104:4.3199997 105:-5.0899997 106:0.65999997 107:1.26 108:0 109:0.65999997 110:1.26 111:0 112:0.13 113:-5.4200001 114:-4.0599999 115:0.13 116:-5.4200001 117:-4.0599999 118:-0.47999999 119:-1.3299999 120:-0.74000001 121:-0.47999999 122:-1.3299999 123:-0.74000001 124:-5.1300001 125:4.3299999 126:-3.8499999 127:-5.1300001 128:4.3299999 129:-3.8499999 130:-0.84999996 131:0.69 132:-0.23999999 133:-0.84999996 134:0.69 135:-0.23999999 136:0 137:-6.4699998 138:-6.4400001 139:0 140:-6.4699998 141:-6.4400001 142:-0.19 143:-0.5 144:0.88999999 145:-0.19 146:-0.5 147:0.88999999 148:-3.1999998 149:5.1999998 150:-2.6299999 
0.6480450360747158 0.08210341239248287 1:-1.03 2:0.75999999 3:-2.53 4:-1.03 5:0.75999999 6:-2.53 7:-1.36 8:-0.52999997 9:0.91999996 10:-1.36 11:-0.52999997 12:0.91999996 13:0.65999997 14:0.34 15:-2.73 16:0.65999997 17:0.34 18:-2.73 19:0.69999999 20:-0.22 21:0.31999999 22:0.69999999 23:-0.22 24:0.31999999 25:0.23999999 26:-0.38999999 27:2.21 28:0.23999999 29:-0.38999999 30:2.21 31:-1.29 32:1.1799999 33:-2.8999999 34:-1.29 35:1.1799999 36:-2.8999999 37:1.8299999 38:-1.8299999 39:7.5299997 40:1.8299999 41:-1.8299999 42:7.5299997 43:-0.12 44:0.14 45:-9.79 46:-0.12 47:0.14 48:-9.79 49:1.4599999 50:0.29999998 51:5.2799997 52:1.4599999 53:0.29999998 54:5.2799997 55:-2.51 56:1.4699999 57:-2.8 58:-2.51 59:1.4699999 60:-2.8 61:0.11 62:-0.11 63:1.4 64:0.11 65:-0.11 66:1.4 67:5.4400001 68:-4.4099998 69:3.29 70:5.4400001 71:-4.4099998 72:3.29 73:-2.23 74:-1.5599999 75:-3.77 76:-2.23 77:-1.5599999 78:-3.77 79:4.29 80:3.05 81:7.1399999 82:4.29 83:3.05 84:7.1399999 85:-1.9599999 86:-0.31 87:-1.7199999 88:-1.9599999 89:-0.31 90:-1.7199999 91:-3.1799998 92:-2.3499999 93:-0.59999996 94:-3.1799998 95:-2.3499999 96:-0.59999996 97:2.6699998 98:-1.6999999 99:-5.7799997 100:2.6699998 101:-1.6999999 102:-5.7799997 103:-1.67 104:0.34 105:-1.5799999 106:-1.67 107:0.34 108:-1.5799999 109:0.74000001 110:2.4099998 111:2.4400001 112:0.74000001 113:2.4099998 114:2.4400001 115:-1.91 116:-0.29999998 117:-3.05 118:-1.91 119:-0.29999998 120:-3.05 121:0.56999999 122:0.039999999 123:3.72 124:0.56999999 125:0.039999999 126:3.72 127:-0.50999999 128:-1.5899999 129:-5.6700001 130:1.8499999 131:-0.32999998 132:4.7399998 133:1.8499999 134:-0.32999998 135:4.7399998 136:1.8499999 137:-0.32999998 138:4.7399998 139:-0.71999997 140:1.4 141:-4.6300001 142:-1.42 143:0.90999997 144:-2.3799999 145:-1.42 146:0.90999997 147:-2.3799999 148:-1.42 149:0.90999997 150:-2.3799999 
0.6470570369285309 0.08123271875493637 1:-2.8099999 2:2.25 3:-3.72 4:-0.50999999 5:-0.61000001 6:4.9000001 7:-0.50999999 8:-0.61000001 9:4.9000001 10:-0.97999996 11:-1.11 12:-2.97 13:-0.97999996 14:-1.11 15:-2.97 16:0.64999998 17:0.84999996 18:0.37 19:0.64999998 20:0.84999996 21:0.37 22:-1.51 23:-0.37 24:4.1599998 25:-1.51 26:-0.37 27:4.1599998 28:-3.53 29:1.49 30:-0.96999997 31:-3.53 32:1.49 33:-0.96999997 34:4.6199999 35:-4.0999999 36:-1.16 37:4.6199999 38:-4.0999999 39:-1.16 40:-1.11 41:0.45999998 42:-4.75 43:-1.11 44:0.45999998 45:-4.75 46:3.3299999 47:4.9499998 48:11.69 49:3.3299999 50:4.9499998 51:11.69 52:-4.7399998 53:-0.45999998 54:-7.5499997 55:-4.7399998 56:-0.45999998 57:-7.5499997 58:1.61 59:1.7199999 60:10.98 61:1.61 62:1.7199999 63:10.98 64:-0.90999997 65:-1.39 66:-14.54 67:-0.90999997 68:-1.39 69:-14.54 70:3.3999999 71:1.99 72:4.75 73:-5.2599998 74:1.38 75:-3.01 76:-5.2599998 77:1.38 78:-3.01 79:-0.56 80:0.59999996 81:-1.99 82:-0.56 83:0.59999996 84:-1.99 85:4.9899998 86:-5.5299997 87:3.48 88:4.9899998 89:-5.5299997 90:3.48 91:-0.63 92:0.42999998 93:-7.7999997 94:-0.63 95:0.42999998 96:-7.7999997 97:2.48 98:4.0999999 99:17.51 100:2.48 101:4.0999999 102:17.51 103:-5.9699998 104:-0.69999999 105:-9.54 106:-5.9699998 107:-0.69999999 108:-9.54 109:1.42 110:1.16 111:7.8399997 112:1.42 113:1.16 114:7.8399997 115:0.11 116:-5.2799997 117:-12.28 118:0.11 119:-5.2799997 120:-12.28 121:0.28 122:0.78999996 123:0.089999996 124:0.28 125:0.78999996 126:0.089999996 127:-3.74 128:2.0799999 129:-4.6399999 130:-3.74 131:2.0799999 132:-4.6399999 133:-2.0899999 134:1.0699999 135:-1.8 136:-2.0899999 137:1.0699999 138:-1.8 139:5.25 140:-1.8 141:9.3899994 142:5.25 143:-1.8 144:9.3899994 145:-2.5799999 146:-1.4699999 147:-9.0299997 148:-2.5799999 149:-1.4699999 150:-9.0299997 
0.6473204544882271 0.08094437263907407 1:1.1899999 2:0.52999997 3:1.09 4:1.1899999 5:0.52999997 6:1.09 7:0.29999998 8:1.01 9:-2.0599999 10:0.29999998 11:1.01 12:-2.0599999 13:-1.42 14:-0.26999998 15:1.91 16:-1.42 17:-0.26999998 18:1.91 19:-1.42 20:-0.26999998 21:1.91 22:-1.42 23:-0.26999998 24:1.91 25:0.32999998 26:0.14 27:1.8399999 28:0.32999998 29:0.14 30:1.8399999 31:-0.81999999 32:-0.099999994 33:-0.47999999 34:-0.81999999 35:-0.099999994 36:-0.47999999 37:-1.61 38:0.41999999 39:-1.29 40:-1.61 41:0.41999999 42:-1.29 43:1.39 44:-1.41 45:1.7099999 46:1.39 47:-1.41 48:1.7099999 49:0.31999999 50:-0.19999999 51:-0.72999996 52:0.31999999 53:-0.19999999 54:-0.72999996 55:0.53999996 56:1.65 57:1.0799999 58:0.53999996 59:1.65 60:1.0799999 61:0.59999996 62:0.31 63:-2.0699999 64:0.59999996 65:0.31 66:-2.0699999 67:-1.9299999 68:-0.28 69:0.32999998 70:-1.9299999 71:-0.28 72:0.32999998 73:1.04 74:0.72999996 75:-2.8399999 76:1.04 77:0.72999996 78:-2.8399999 79:-0.41 80:-2.54 81:-3.5999999 82:-0.41 83:-2.54 84:-3.5999999 85:6.1099997 86:1.05 87:20.35 88:6.1099997 89:1.05 90:20.35 91:-4.6599998 92:1.3 93:-8.8400002 94:-4.6599998 95:1.3 96:-8.8400002 97:8.2799997 98:0 99:16.879999 100:8.2799997 101:0 102:16.879999 103:-5.23 104:-2.8299999 105:-11.84 106:-5.23 107:-2.8299999 108:-11.84 109:4.9299998 110:1.79 111:5.9299998 112:4.9299998 113:1.79 114:5.9299998 115:-3.98 116:2.1199999 117:-1.5799999 118:-3.98 119:2.1199999 120:-1.5799999 121:-1.3399999 122:2.79 123:2.1699998 124:-1.3399999 125:2.79 126:2.1699998 127:4.3299999 128:-7.77 129:-3.6799998 130:4.3299999 131:-7.77 132:-3.6799998 133:-1.9499999 134:-1.27 135:-4.5699997 136:-1.9499999 137:-1.27 138:-4.5699997 139:1.88 140:2.6499999 141:5.0099998 142:1.88 143:2.6499999 144:5.0099998 145:-4.5999999 146:2.47 147:-3.4199998 148:-4.5999999 149:2.47 150:-3.4199998 
0.6468811471073099 0.08089133323982142 1:0.029999999 2:0.39999998 3:-2.48 4:1.38 5:0.19999999 6:2.01 7:1.38 8:0.19999999 9:2.01 10:-0.089999996 11:0.35999998 12:-1.4399999 13:-0.089999996 14:0.35999998 15:-1.4399999 16:-1.66 17:1.11 18:2.6199999 19:-1.66 20:1.11 21:2.6199999 22:0.97999996 23:-1.15 24:-6.8399997 25:0.97999996 26:-1.15 27:-6.8399997 28:0.29999998 29:-1.13 30:-2.3 31:0.29999998 32:-1.13 33:-2.3 34:-2.04 35:4.5699997 36:5.1399999 37:-2.04 38:4.5699997 39:5.1399999 40:-2.6499999 41:0.17 42:-2.9199998 43:-2.6499999 44:0.17 45:-2.9199998 46:8.6999998 47:-4.3499999 48:9.6099997 49:8.6999998 50:-4.3499999 51:9.6099997 52:-1.8299999 53:-1.65 54:-6.6099997 55:-1.8299999 56:-1.65 57:-6.6099997 58:3.1299999 59:3.21 60:3 61:3.1299999 62:3.21 63:3 64:-5.48 65:2.23 66:-0.26999998 67:-5.48 68:2.23 69:-0.26999998 70:-0.14 71:-0.34999999 72:2.5 73:-0.14 74:-0.34999999 75:2.5 76:3.02 77:-5.4200001 78:-2.6699998 79:3.02 80:-5.4200001 81:-2.6699998 82:-1.05 83:-1.24 84:-3.9499998 85:-1.05 86:-1.24 87:-3.9499998 88:2.1800001 89:1.27 90:1.54 91:2.1800001 92:1.27 93:1.54 94:-6.0499997 95:4.5099998 96:-4.3600001 97:-6.0499997 98:4.5099998 99:-4.3600001 100:2.26 101:-2.3 102:4.0099998 103:2.26 104:-2.3 105:4.0099998 106:-0.44 107:-2.79 108:-8.46 109:-0.44 110:-2.79 111:-8.46 112:0.88 113:0.56999999 114:0.19 115:0.88 116:0.56999999 117:0.19 118:-2.4400001 119:2.1800001 120:0.78999996 121:-2.4400001 122:2.1800001 123:0.78999996 124:-2.6499999 125:2.5999999 126:-1.49 127:-2.6499999 128:2.5999999 129:-1.49 130:5.29 131:-5.3499999 132:5.7199998 133:5.29 134:-5.3499999 135:5.7199998 136:-2.51 137:-1.1 138:-7.04 139:-2.51 140:-1.1 141:-7.04 142:2.1399999 143:1.27 144:3.4199998 145:2.1399999 146:1.27 147:3.4199998 148:-4.3499999 149:3.3899999 150:-0.82999998 
0.6475648356338949 0.08122608962948352 1:-0.90999997 2:0.81999999 3:0.14 4:-0.90999997 5:0.81999999 6:0.14 7:1.02 8:-1.41 9:-1.89 10:1.02 11:-1.41 12:-1.89 13:0.22 14:-0.35999998 15:-1.29 16:0.22 17:-0.35999998 18:-1.29 19:2.3999999 20:0.98999995 21:4.9200001 22:2.3999999 23:0.98999995 24:4.9200001 25:-2.6699998 26:1.62 27:-1.22 28:-2.6699998 29:1.62 30:-1.22 31:-0.63 32:0.65999997 33:2.1599998 34:-0.63 35:0.65999997 36:2.1599998 37:1.16 38:-4.5799999 39:-8.4499998 40:1.16 41:-4.5799999 42:-8.4499998 43:0.35999998 44:-0.44999999 45:-2 46:0.35999998 47:-0.44999999 48:-2 49:1.38 50:7.5799999 51:9.4899998 52:1.38 53:7.5799999 54:9.4899998 55:-5.8699999 56:-1.6999999 57:-8.1999998 58:-5.8699999 59:-1.6999999 60:-8.1999998 61:7.4899998 62:-5.1799998 63:18.91 64:7.4899998 65:-5.1799998 66:18.91 67:-1.62 68:-1.54 69:-8.1499996 70:-1.62 71:-1.54 72:-8.1499996 73:4.2999997 74:3.3999999 75:7.23 76:4.2999997 77:3.3999999 78:7.23 79:-9.04 80:4.9699998 81:-5.1999998 82:-9.04 83:4.9699998 84:-5.1999998 85:2.45 86:-1.0699999 87:6.2599998 88:2.45 89:-1.0699999 90:6.2599998 91:1.24 92:-7.3699999 93:-11.41 94:1.24 95:-7.3699999 96:-11.41 97:2.6299999 98:-1.0799999 99:-1.1 100:2.6299999 101:-1.0799999 102:-1.1 103:-7.4400001 104:8.1799994 105:-0.95999998 106:-7.4400001 107:8.1799994 108:-0.95999998 109:-0.049999997 110:-1.54 111:-1.6899999 112:-0.049999997 113:-1.54 114:-1.6899999 115:3.8399999 116:-9.1700001 117:-7.8999996 118:3.8399999 119:-9.1700001 120:-7.8999996 121:-0.59999996 122:0.61000001 123:-2.9299998 124:-0.59999996 125:0.61000001 126:-2.9299998 127:-1.55 128:4.6900001 129:7.9099998 130:-1.55 131:4.6900001 132:7.9099998 133:-3.1499999 134:0.94 135:-5.6900001 136:-3.1499999 137:0.94 138:-5.6900001 139:3.0799999 140:-2.9399998 141:14.94 142:3.0799999 143:-2.9399998 144:14.94 145:0.64999998 146:-3.72 147:-12.29 148:0.64999998 149:-3.72 150:-12.29 
0.6470434200033583 0.08099752358565587 1:0.65999997 2:0.41999999 3:1.4699999 4:-0.22 5:1.25 6:-1.91 7:-0.22 8:1.25 9:-1.91 10:-0.66999996 11:0.34 12:3.0999999 13:-0.66999996 14:0.34 15:3.0999999 16:-0.31 17:-0.38999999 18:-2.78 19:-0.31 20:-0.38999999 21:-2.78 22:1.02 23:-0.63999999 24:-0.12 25:1.02 26:-0.63999999 27:-0.12 28:-1.4499999 29:1.73 30:-1.8399999 31:-1.4499999 32:1.73 33:-1.8399999 34:-1.27 35:0.11 36:-2.8899999 37:-1.27 38:0.11 39:-2.8899999 40:4.46 41:-2.27 42:10.34 43:4.46 44:-2.27 45:10.34 46:-0.83999997 47:-2.45 48:-6.6700001 49:-0.83999997 50:-2.45 51:-6.6700001 52:3.6399999 53:1.49 54:2.72 55:3.6399999 56:1.49 57:2.72 58:-7.3399997 59:6.6999998 60:-0.74000001 61:-7.3399997 62:6.6999998 63:-0.74000001 64:0 65:-1.9 66:-1.26 67:0 68:-1.9 69:-1.26 70:0 71:-1.9 72:-1.26 73:0 74:-1.9 75:-1.26 76:-0.75 77:-0.64999998 78:-4.23 79:-0.75 80:-0.64999998 81:-4.23 82:2.03 83:4.0799999 84:4.1799998 85:2.03 86:4.0799999 87:4.1799998 88:-6.6099997 89:3.49 90:-5.1900001 91:-6.6099997 92:3.49 93:-5.1900001 94:0.47 95:-0.69999999 96:8.8000002 97:0.47 98:-0.69999999 99:8.8000002 100:0.049999997 101:-5.7599998 102:-11.2 103:0.049999997 104:-5.7599998 105:-11.2 106:2.24 107:2.22 108:3.1699998 109:2.24 110:2.22 111:3.1699998 112:-3.3999999 113:3.4499998 114:2.8199999 115:-3.3999999 116:3.4499998 117:2.8199999 118:-2.4099998 119:1.4499999 120:-4.5099998 121:-2.4099998 122:1.4499999 123:-4.5099998 124:5.3599997 125:-8.3299999 126:9.3599997 127:5.3599997 128:-8.3299999 129:9.3599997 130:-1.67 131:0.81999999 132:-8.0900002 133:-1.67 134:0.81999999 135:-8.0900002 136:3.02 137:1.64 138:5.8899999 139:3.02 140:1.64 141:5.8899999 142:-4.8299999 143:2.95 144:-2.3499999 145:-4.8299999 146:2.95 147:-2.3499999 148:-0.13 149:0.089999996 150:1.4699999 
0.6471522564029608 0.08099709310856021 1:1.6799999 2:-1.89 3:1.4399999 4:-0.0099999998 5:-0.12 6:-2.3799999 7:-0.0099999998 8:-0.12 9:-2.3799999 10:-0.039999999 11:-0.44999999 12:0.34 13:-0.039999999 14:-0.44999999 15:0.34 16:-3.1499999 17:2.23 18:-1.24 19:-3.1499999 20:2.23 21:-1.24 22:-1.49 23:1.27 24:2.52 25:-1.49 26:1.27 27:2.52 28:3.8399999 29:-2.3099999 30:-7.6900001 31:3.8399999 32:-2.3099999 33:-7.6900001 34:0.23999999 35:-0.34 36:-0.56999999 37:0.23999999 38:-0.34 39:-0.56999999 40:0.44 41:2.6599998 42:3.3699999 43:0.44 44:2.6599998 45:3.3699999 46:-4.8599997 47:0.65999997 48:-5.7799997 49:-4.8599997 50:0.65999997 51:-5.7799997 52:0.17 53:0.12 54:5.8399997 55:0.17 56:0.12 57:5.8399997 58:0.88 59:-0.69 60:-11.219999 61:0.88 62:-0.69 63:-11.219999 64:0.66999996 65:-1.1799999 66:3.0699999 67:0.66999996 68:-1.1799999 69:3.0699999 70:-2.3899999 71:2.7 72:-2.22 73:-2.3899999 74:2.7 75:-2.22 76:0.5 77:-0.26999998 78:-2.04 79:0.5 80:-0.26999998 81:-2.04 82:-2.0999999 83:-2.2 84:9.2399998 85:-2.0999999 86:-2.2 87:9.2399998 88:0.88 89:-0.34 90:-7.2199998 91:0.88 92:-0.34 93:-7.2199998 94:2.4299998 95:1.63 96:0.91999996 97:2.4299998 98:1.63 99:0.91999996 100:-3.3199999 101:1.49 102:3.9199998 103:-3.3199999 104:1.49 105:3.9199998 106:-0.70999998 107:1.0799999 108:-2.8 109:-0.70999998 110:1.0799999 111:-2.8 112:2.6199999 113:-3.8599999 114:1.9299999 115:2.6199999 116:-3.8599999 117:1.9299999 118:0.94999999 119:-1.8499999 120:-5.8299999 121:0.94999999 122:-1.8499999 123:-5.8299999 124:2.3099999 125:5.6900001 126:15.049999 127:2.3099999 128:5.6900001 129:15.049999 130:-4.6700001 131:0.84999996 132:-8.1999998 133:-4.6700001 134:0.84999996 135:-8.1999998 136:0.58999997 137:1.09 138:8.7299995 139:0.58999997 140:1.09 141:8.7299995 142:0.22 143:-5.1700001 144:-11.679999 145:0.22 146:-5.1700001 147:-11.679999 148:2.55 149:2.46 150:4.9699998 
0.6480415312061386 0.08170956209455682 1:-0.099999994 2:0 3:-0.96999997 4:0.22999999 5:0.14 6:0.81 7:0.22999999 8:0.14 9:0.81 10:-0.25 11:0.74000001 12:-0.45999998 13:-0.25 14:0.74000001 15:-0.45999998 16:-1.13 17:-0.31 18:1.1 19:-1.13 20:-0.31 21:1.1 22:0.14999999 23:-1.2099999 24:-2.47 25:0.14999999 26:-1.2099999 27:-2.47 28:0.32999998 29:0.099999994 30:-1.62 31:0.32999998 32:0.099999994 33:-1.62 34:0.93000001 35:0.91999996 36:2.45 37:0.93000001 38:0.91999996 39:2.45 40:-0.17999999 41:0.94999999 42:-2.0599999 43:-0.17999999 44:0.94999999 45:-2.0599999 46:-0.5 47:-0.35999998 48:3.1299999 49:-0.5 50:-0.35999998 51:3.1299999 52:0.88 53:-0.81 54:-2.6699998 55:0.88 56:-0.81 57:-2.6699998 58:0.89999998 59:-0.07 60:3.8 61:0.89999998 62:-0.07 63:3.8 64:0.53999996 65:-0.089999996 66:-1.61 67:0.53999996 68:-0.089999996 69:-1.61 70:-1.87 71:1.14 72:-1.49 73:-1.87 74:1.14 75:-1.49 76:-0.69999999 77:-0.25999999 78:10.05 79:-0.69999999 80:-0.25999999 81:10.05 82:-0.11 83:-2.3799999 84:-10.45 85:-0.11 86:-2.3799999 87:-10.45 88:3.05 89:0.96999997 90:5.8599997 91:3.05 92:0.96999997 93:5.8599997 94:-4.8099999 95:3.4299998 96:-5.5999999 97:-4.8099999 98:3.4299998 99:-5.5999999 100:-0.56 101:0.26999998 102:2.0699999 103:-0.56 104:0.26999998 105:2.0699999 106:3.0799999 107:-2.6099999 108:-7.9699998 109:3.0799999 110:-2.6099999 111:-7.9699998 112:3.0799999 113:-2.6099999 114:-7.9699998 115:3.0799999 116:-2.6099999 117:-7.9699998 118:-0.31 119:-0.44999999 120:1.23 121:-0.31 122:-0.44999999 123:1.23 124:-1.05 125:1.64 126:-1.53 127:-1.05 128:1.64 129:-1.53 130:1.1 131:-0.52999997 132:4.25 133:1.1 134:-0.52999997 135:4.25 136:0.72999996 137:-1.05 138:-2.52 139:0.72999996 140:-1.05 141:-2.52 142:2.3899999 143:-0.63 144:3.3999999 145:2.3899999 146:-0.63 147:3.3999999 148:2.3899999 149:-0.63 150:3.3999999 
0.6467785509722812 0.08096353733308059 1:-0.26999998 2:0.97999996 3:3.51 4:-0.26999998 5:0.97999996 6:3.51 7:0.45999998 8:0.12 9:-2.3299999 10:0.45999998 11:0.12 12:-2.3299999 13:-0.34999999 14:0.58999997 15:-1.78 16:-0.34999999 17:0.58999997 18:-1.78 19:0.14999999 20:-1.5899999 21:8.25 22:0.14999999 23:-1.5899999 24:8.25 25:0.84999996 26:-2.8 27:-7.52 28:0.84999996 29:-2.8 30:-7.52 31:3.8299999 32:3.1099999 33:7.3399997 34:3.8299999 35:3.1099999 36:7.3399997 37:-4.6100001 38:-0.89999998 39:-4.8699999 40:-0.42999998 41:2.3999999 42:-1.02 43:-0.42999998 44:2.3999999 45:-1.02 46:4.98 47:-5.27 48:1.77 49:4.98 50:-5.27 51:1.77 52:-1.6799999 53:-1.4699999 54:-5.77 55:-1.6799999 56:-1.4699999 57:-5.77 58:-0.56999999 59:0.98999995 60:12.4 61:-0.56999999 62:0.98999995 63:12.4 64:-2.1900001 65:2.23 66:-8.5999994 67:-2.1900001 68:2.23 69:-8.5999994 70:-0.75 71:-0.059999999 72:7.3499999 73:-0.75 74:-0.059999999 75:7.3499999 76:3.6099999 77:-1.4399999 78:-13.46 79:3.6099999 80:-1.4399999 81:-13.46 82:1.7199999 83:-0.91999996 84:3.55 85:1.7199999 86:-0.91999996 87:3.55 88:-2.51 89:4.0499997 90:7.29 91:-2.51 92:4.0499997 93:7.29 94:-2.76 95:-0.95999998 96:-3.9599998 97:-2.76 98:-0.95999998 99:-3.9599998 100:6.9899998 101:-7.0099998 102:12.34 103:6.9899998 104:-7.0099998 105:12.34 106:-1.26 107:-0.19999999 108:-6.5499997 109:-1.26 110:-0.19999999 111:-6.5499997 112:2.8999999 113:2.05 114:1.4399999 115:2.8999999 116:2.05 117:1.4399999 118:-3.5999999 119:3.3199999 120:-0.85999995 121:-3.5999999 122:3.3199999 123:-0.85999995 124:-1.05 125:-1.37 126:0.98999995 127:-1.05 128:-1.37 129:0.98999995 130:2.3799999 131:-2.3599999 132:-1.4599999 133:2.3799999 134:-2.3599999 135:-1.4599999 136:-1.11 137:-1.1899999 138:-3.1399999 139:-1.11 140:-1.1899999 141:-3.1399999 142:1.09 143:1.86 144:1.41 145:1.09 146:1.86 147:1.41 148:-4.0499997 149:1.79 150:-2.5999999 
0.6473008553290333 0.08094117892084572 1:-1.3399999 2:-0.14 3:2.73 4:1.3199999 5:-3 6:-1.7099999 7:1.3199999 8:-3 9:-1.7099999 10:-0.75 11:0.39999998 12:-1.0599999 13:-0.75 14:0.39999998 15:-1.0599999 16:1.7199999 17:0.17999999 18:0.17999999 19:1.7199999 20:0.17999999 21:0.17999999 22:-2.5 23:3.5599999 24:1.25 25:-2.5 26:3.5599999 27:1.25 28:-0.56999999 29:-0.64999998 30:7.3999996 31:-0.56999999 32:-0.64999998 33:7.3999996 34:-0.14999999 35:-4.3099999 36:-11.04 37:-0.14999999 38:-4.3099999 39:-11.04 40:-0.50999999 41:0.059999999 42:-1.73 43:-0.50999999 44:0.059999999 45:-1.73 46:-2.0699999 47:5.5999999 48:6.6700001 49:-2.0699999 50:5.5999999 51:6.6700001 52:-3.8799999 53:-0.14 54:-4.29 55:-3.8799999 56:-0.14 57:-4.29 58:5.4699998 59:-5.6399999 60:13.309999 61:5.4699998 62:-5.6399999 63:13.309999 64:-1.92 65:-0.12 66:-6.54 67:-1.92 68:-0.12 69:-6.54 70:4.0599999 71:-0.39999998 72:-1.64 73:4.0599999 74:-0.39999998 75:-1.64 76:-6.5 77:6.4699998 78:0.049999997 79:-6.5 80:6.4699998 81:0.049999997 82:-1.4599999 83:-0.47 84:-2.99 85:-1.4599999 86:-0.47 87:-2.99 88:5.4699998 89:-5.04 90:4.5699997 91:5.4699998 92:-5.04 93:4.5699997 94:-2.0999999 95:-1.89 96:-6.3199997 97:-2.0999999 98:-1.89 99:-6.3199997 100:3.0699999 101:1.01 102:2.45 103:3.0699999 104:1.01 105:2.45 106:-6.7399998 107:3.9099998 108:-7.3799996 109:-6.7399998 110:3.9099998 111:-7.3799996 112:0.0099999998 113:-0.63 114:8.3899994 115:0.0099999998 116:-0.63 117:8.3899994 118:2.8399999 119:-3.6299999 120:-11.389999 121:2.8399999 122:-3.6299999 123:-11.389999 124:-1.16 125:-1.4499999 126:-0.20999999 127:-1.16 128:-1.4499999 129:-0.20999999 130:0.78999996 131:3.1899998 132:5.7599998 133:0.78999996 134:3.1899998 135:5.7599998 136:-3.3499999 137:1.88 138:-1.3 139:-3.3499999 140:1.88 141:-1.3 142:9.5999994 143:-2.48 144:7.1900001 145:9.5999994 146:-2.48 147:7.1900001 148:-4.5999999 149:-1.9299999 150:-7.1700001 
0.6467785745905308 0.08029281004895353 1:-0.41999999 2:-0.19 3:-3.5599999 4:-0.41999999 5:-0.19 6:-3.5599999 7:0.5 8:0.22999999 9:1.52 10:0.5 11:0.22999999 12:1.52 13:0.75999999 14:-0.19 15:0.85999995 16:0.75999999 17:-0.19 18:0.85999995 19:-0.98999995 20:0.94 21:-3.22 22:-0.98999995 23:0.94 24:-3.22 25:-1.6799999 26:0.41999999 27:10.51 28:-1.6799999 29:0.41999999 30:10.51 31:1.5599999 32:-2.4199998 33:-7.4699998 34:1.5599999 35:-2.4199998 36:-7.4699998 37:3.78 38:-2.3299999 39:2.6099999 40:3.78 41:-2.3299999 42:2.6099999 43:-2.8399999 44:4.2599998 45:5.5599999 46:-2.8399999 47:4.2599998 48:5.5599999 49:-1.92 50:1.41 51:-5.9499998 52:-1.92 53:1.41 54:-5.9499998 55:10.389999 56:-6.9499998 57:15.179999 58:10.389999 59:-6.9499998 60:15.179999 61:-3.8999999 62:-2 63:-7.0299997 64:-3.8999999 65:-2 66:-7.0299997 67:4.5899997 68:4.1999998 69:7.9400001 70:4.5899997 71:4.1999998 72:7.9400001 73:-7.48 74:1.38 75:-10.08 76:-7.48 77:1.38 78:-10.08 79:2.21 80:2.24 81:4.1700001 82:2.21 83:2.24 84:4.1700001 85:1.49 86:-4.6300001 87:-14.299999 88:1.49 89:-4.6300001 90:-14.299999 91:0.28 92:-0.42999998 93:-0.079999998 94:0.28 95:-0.42999998 96:-0.079999998 97:-3.75 98:6.2999997 99:5.3699999 100:-3.75 101:6.2999997 102:5.3699999 103:-2.2 104:-0.81999999 105:-5.0799999 106:-2.2 107:-0.81999999 108:-5.0799999 109:9.2399998 110:-2.72 111:12.84 112:9.2399998 113:-2.72 114:12.84 115:-3.27 116:-2.51 117:-7.0499997 118:-3.27 119:-2.51 120:-7.0499997 121:4.2199998 122:1.5799999 123:3.53 124:4.2199998 125:1.5799999 126:3.53 127:-9.4299994 128:3.6699998 129:-5.0099998 130:-9.4299994 131:3.6699998 132:-5.0099998 133:0.07 134:-0.56999999 135:0.88 136:0.07 137:-0.56999999 138:0.88 139:2.9099998 140:-5.9699998 141:-10.809999 142:2.9099998 143:-5.9699998 144:-10.809999 145:0.47 146:0.88 147:-0.19 148:0.47 149:0.88 150:-0.19 
0.6469913108368344 0.08123319754743542 1:-0.17 2:-0.58999997 3:-1.67 4:-0.17 5:-0.58999997 6:-1.67 7:0.61000001 8:0.25 9:0.88999999 10:0.61000001 11:0.25 12:0.88999999 13:0.59999996 14:-0.72999996 15:1.13 16:0.59999996 17:-0.72999996 18:1.13 19:-0.22 20:-0.0099999998 21:-0.89999998 22:-0.22 23:-0.0099999998 24:-0.89999998 25:-1.4299999 26:1.02 27:7.4099998 28:-1.4299999 29:1.02 30:7.4099998 31:-0.95999998 32:-2.4400001 33:-6.0699997 34:-0.95999998 35:-2.4400001 36:-6.0699997 37:2.8399999 38:-1.35 39:2.8399999 40:2.8399999 41:-1.35 42:2.8399999 43:1.0599999 44:-0.23999999 45:10.04 46:1.0599999 47:-0.23999999 48:10.04 49:-3.4299998 50:2.55 51:-6.2399998 52:-3.4299998 53:2.55 54:-6.2399998 55:5.5599999 56:-4.2199998 57:17.779999 58:5.5599999 59:-4.2199998 60:17.779999 61:-2.71 62:-1.27 63:-9.1399994 64:-2.71 65:-1.27 66:-9.1399994 67:5.23 68:3.26 69:5.5599999 70:5.23 71:3.26 72:5.5599999 73:-6.9400001 74:2.3599999 75:-6.8999996 76:-6.9400001 77:2.3599999 78:-6.8999996 79:-1.6899999 80:-1.67 81:3.8099999 82:-1.6899999 83:-1.67 84:3.8099999 85:2.99 86:-4.9899998 87:-11.11 88:2.99 89:-4.9899998 90:-11.11 91:1.16 92:0.63999999 93:3.3899999 94:1.16 95:0.63999999 96:3.3899999 97:-0.75 98:3 99:3.3 100:-0.75 101:3 102:3.3 103:-2.3999999 104:0.34999999 105:-4.4299998 106:4.4400001 107:0 108:14.33 109:4.4400001 110:0 111:14.33 112:-1.67 113:-3.9399998 114:-10.62 115:-1.67 116:-3.9399998 117:-10.62 118:3.8999999 119:2.6099999 120:5.8699999 121:3.8999999 122:2.6099999 123:5.8699999 124:-3.6599998 125:2.55 126:-1.63 127:-3.6599998 128:2.55 129:-1.63 130:-1.66 131:1.01 132:-2.6900001 133:-1.66 134:1.01 135:-2.6900001 136:4.3399997 137:-7.4400001 138:-4.5299997 139:4.3399997 140:-7.4400001 141:-4.5299997 142:-0.87 143:-0.099999994 144:-0.079999998 145:-0.87 146:-0.099999994 147:-0.079999998 148:3.98 149:1.9399999 150:2.1199999 
0.6999051677699765 0.1170869020405052 1:0.12 2:-0.079999998 3:-0.059999999 4:0.12 5:-0.079999998 6:-0.059999999 7:0.12 8:-0.079999998 9:-0.059999999 10:-0.029999999 11:-0.31999999 12:0.049999997 13:-0.029999999 14:-0.31999999 15:0.049999997 16:0.75999999 17:-0.58999997 18:0.22 19:0.75999999 20:-0.58999997 21:0.22 22:-0.82999998 23:-0.19 24:-0.44 25:-0.82999998 26:-0.19 27:-0.44 28:-1.0699999 29:4.0699997 30:3.5899999 31:-1.0699999 32:4.0699997 33:3.5899999 34:2.4099998 35:-2.0899999 36:-2.6499999 37:2.4099998 38:-2.0899999 39:-2.6499999 40:-0.5 41:-0.98999995 42:-1.3099999 43:-0.5 44:-0.98999995 45:-1.3099999 46:-0.68000001 47:-0.84999996 48:-0.53999996 49:-0.68000001 50:-0.84999996 51:-0.53999996 52:0.53999996 53:7.2599998 54:4.8800001 55:0.53999996 56:7.2599998 57:4.8800001 58:-0.22 59:-4.7599998 60:-3.22 61:-0.22 62:-4.7599998 63:-3.22 64:0.28999999 65:-2.21 66:-0.70999998 67:0.28999999 68:-2.21 69:-0.70999998 70:-0.79999995 71:-0.70999998 72:-0.84999996 73:-0.79999995 74:-0.70999998 75:-0.84999996 76:-0.02 77:2.8799999 78:2.04 79:-0.02 80:2.8799999 81:2.04 82:1.6899999 83:2.29 84:1.5 85:1.6899999 86:2.29 87:1.5 88:0.07 89:-3.9199998 90:-2.3099999 91:0.07 92:-3.9199998 93:-2.3099999 94:-0.25999999 95:0.65999997 96:-0.45999998 97:-0.25999999 98:0.65999997 99:-0.45999998 100:-0.56 101:0.75 102:0.41 103:-0.56 104:0.75 105:0.41 106:-0.22 107:3.22 108:3.6499999 109:-0.22 110:3.22 111:3.6499999 112:-0.22 113:3.22 114:3.6499999 115:-0.22 116:3.22 117:3.6499999 118:0.029999999 119:-1.76 120:-1.25 121:0.029999999 122:-1.76 123:-1.25 124:-0.089999996 125:0.84999996 126:-0.089999996 127:-0.089999996 128:0.84999996 129:-0.089999996 130:-0.089999996 131:0.84999996 132:-0.089999996 133:-0.089999996 134:0.84999996 135:-0.089999996 136:0.099999994 137:-3.77 138:-2.5899999 139:0.099999994 140:-3.77 141:-2.5899999 142:0.69999999 143:-1.24 144:-0.41 145:0.69999999 146:-1.24 147:-0.41 148:0.69999999 149:-1.24 150:-0.41 
-0 1 1:0.07 2:0.049999997 3:0.029999999 4:0.07 5:0.049999997 6:0.029999999 7:0.049999997 8:0.089999996 9:0.23999999 10:0.049999997 11:0.089999996 12:0.23999999 13:-0.19 14:-0.099999994 15:-0.039999999 16:-0.19 17:-0.099999994 18:-0.039999999 19:-0.029999999 20:0.02 21:-0.0099999998 22:-0.029999999 23:0.02 24:-0.0099999998 25:0.14 26:0.099999994 27:-0.079999998 28:0.14 29:0.099999994 30:-0.079999998 31:0.0099999998 32:0.049999997 33:0.07 34:0.0099999998 35:0.049999997 36:0.07 37:-0.17999999 38:-0.099999994 39:0.089999996 40:-0.17999999 41:-0.099999994 42:0.089999996 43:0.059999999 44:0.07 45:0.14999999 46:0.059999999 47:0.07 48:0.14999999 49:0.07 50:0.12 51:0.059999999 52:0.07 53:0.12 54:0.059999999 55:-0.089999996 56:0 57:0 58:-0.089999996 59:0 60:0 61:-0.0099999998 62:0.07 63:0.029999999 64:-0.0099999998 65:0.07 66:0.029999999 67:-0.22 68:-0.02 69:-0.19 70:-0.22 71:-0.02 72:-0.19 73:0.14999999 74:-0.19999999 75:0.079999998 76:0.14999999 77:-0.19999999 78:0.079999998 79:0.16 80:-0.0099999998 81:0.049999997 82:0.16 83:-0.0099999998 84:0.049999997 85:0.34 86:-0.059999999 87:-0.11 88:0.34 89:-0.059999999 90:-0.11 91:-1.09 92:-1.3299999 93:0.94999999 94:-1.09 95:-1.3299999 96:0.94999999 97:-0.099999994 98:0.57999998 99:-1.12 100:-0.099999994 101:0.57999998 102:-1.12 103:-0.25999999 104:-0.39999998 105:-1.0799999 106:-0.25999999 107:-0.39999998 108:-1.0799999 109:0.19999999 110:-0.039999999 111:0.70999998 112:0.19999999 113:-0.039999999 114:0.70999998 115:-0.25 116:-0.039999999 117:0.11 118:-0.25 119:-0.039999999 120:0.11 121:0.19999999 122:-0.02 123:-0.37 124:0.19999999 125:-0.02 126:-0.37 127:-0.28 128:0.14 129:-0.16 130:-0.28 131:0.14 132:-0.16 133:-0.029999999 134:0.089999996 135:0.07 136:-0.029999999 137:0.089999996 138:0.07 139:0.25 140:-0.31 141:0.23999999 142:0.25 143:-0.31 144:0.23999999 145:-0.23999999 146:0.35999998 147:-0.059999999 148:-0.23999999 149:0.35999998 150:-0.059999999 
-0.1045999094277114 0.6459661870819466 1:-0.72999996 2:0.11 3:1.17 4:0.56999999 5:0.52999997 6:-0.41999999 7:0.56999999 8:0.52999997 9:-0.41999999 10:0.31999999 11:-0.13 12:-1.0699999 13:0.31999999 14:-0.13 15:-1.0699999 16:0.049999997 17:-0.77999997 18:1.22 19:0.049999997 20:-0.77999997 21:1.22 22:-0.28 23:0.59999996 24:-0.44 25:-0.28 26:0.59999996 27:-0.44 28:-0.75 29:-0.59999996 30:0.34999999 31:-0.75 32:-0.59999996 33:0.34999999 34:-0.31 35:-0.16 36:1.2099999 37:-0.31 38:-0.16 39:1.2099999 40:-0.63 41:0.63 42:-2.1199999 43:-0.63 44:0.63 45:-2.1199999 46:0.47 47:0.56999999 48:0.42999998 49:0.47 50:0.56999999 51:0.42999998 52:0.79999995 53:-1.51 54:0.63 55:0.79999995 56:-1.51 57:0.63 58:-1.26 59:1.52 60:1.73 61:-1.26 62:1.52 63:1.73 64:0.14999999 65:-0.87 66:-2.1499999 67:0.14999999 68:-0.87 69:-2.1499999 70:-0.66999996 71:0.13 72:0.16 73:-0.66999996 74:0.13 75:0.16 76:-0.29999998 77:-0.14 78:-1.79 79:-0.29999998 80:-0.14 81:-1.79 82:0.94999999 83:0.45999998 84:-0.0099999998 85:0.94999999 86:0.45999998 87:-0.0099999998 88:-0.22 89:-0.55000001 90:-1.1799999 91:-0.22 92:-0.55000001 93:-1.1799999 94:-0.41999999 95:1.12 96:-1.4699999 97:-0.41999999 98:1.12 99:-1.4699999 100:0.14 101:-0.74000001 102:3.4299998 103:0.14 104:-0.74000001 105:3.4299998 106:-1.01 107:-0.52999997 108:-0.78999996 109:-1.01 110:-0.52999997 111:-0.78999996 112:-0.039999999 113:0.82999998 114:-2.5999999 115:-0.039999999 116:0.82999998 117:-2.5999999 118:1.5599999 119:-0.62 120:2.73 121:1.5599999 122:-0.62 123:2.73 124:0.42999998 125:-0.14999999 126:-0.88999999 127:0.42999998 128:-0.14999999 129:-0.88999999 130:-0.75999999 131:0.71999997 132:0.20999999 133:-0.75999999 134:0.71999997 135:0.20999999 136:0.29999998 137:-0.25999999 138:1.52 139:0.29999998 140:-0.25999999 141:1.52 142:-0.38999999 143:-0.12 144:-1.5999999 145:-0.38999999 146:-0.12 147:-1.5999999 148:0.059999999 149:0.62 150:-0.62 
-0.7846040658150899 0.1570032791731276 1:0.38999999 2:0.84999996 3:-1.11 4:0.47999999 5:-0.26999998 6:-0.02 7:0.47999999 8:-0.26999998 9:-0.02 10:0.62 11:-0.44 12:-0.5 13:0.62 14:-0.44 15:-0.5 16:-0.69999999 17:0.47 18:-0.48999998 19:-0.69999999 20:0.47 21:-0.48999998 22:0.71999997 23:-0.17999999 24:3.3299999 25:0.71999997 26:-0.17999999 27:3.3299999 28:-2.01 29:-0.66999996 30:-1.09 31:-2.01 32:-0.66999996 33:-1.09 34:0.53999996 35:-0.35999998 36:-1.8199999 37:0.53999996 38:-0.35999998 39:-1.8199999 40:1.14 41:-0.039999999 42:2.22 43:1.14 44:-0.039999999 45:2.22 46:-0.47 47:-0.12 48:-2.8899999 49:-0.47 50:-0.12 51:-2.8899999 52:-1.05 53:1.3099999 54:1 55:-1.05 56:1.3099999 57:1 58:0.37 59:-0.91999996 60:-0.34 61:0.37 62:-0.91999996 63:-0.34 64:-0.58999997 65:-1.05 66:0.38 67:-0.58999997 68:-1.05 69:0.38 70:0.20999999 71:0.79999995 72:-0.97999996 73:0.20999999 74:0.79999995 75:-0.97999996 76:0.35999998 77:0.22 78:-0.65999997 79:0.35999998 80:0.22 81:-0.65999997 82:-0.97999996 83:-0.48999998 84:-0.31 85:-0.97999996 86:-0.48999998 87:-0.31 88:-0.22 89:1.17 90:2.8699999 91:-0.22 92:1.17 93:2.8699999 94:-0.63999999 95:-1.77 96:-3.3099999 97:-0.63999999 98:-1.77 99:-3.3099999 100:-0.11 101:-0.34 102:1.22 103:-0.34 104:1.11 105:-0.66999996 106:-0.34 107:1.11 108:-0.66999996 109:0.5 110:0.28999999 111:-1.9499999 112:0.5 113:0.28999999 114:-1.9499999 115:-0.34999999 116:-0.099999994 117:-1.36 118:-0.34999999 119:-0.099999994 120:-1.36 121:0.57999998 122:0.079999998 123:3.6299999 124:0.57999998 125:0.079999998 126:3.6299999 127:-0.41999999 128:-2.1499999 129:-3.1599998 130:-0.41999999 131:-2.1499999 132:-3.1599998 133:0.68000001 134:-0.079999998 135:-1.3299999 136:0.68000001 137:-0.079999998 138:-1.3299999 139:0.32999998 140:1.27 141:2.8099999 142:0.32999998 143:1.27 144:2.8099999 145:-0.12 146:-0.28 147:-0.75 148:-0.12 149:-0.28 150:-0.75 
-1 0 1:0.47 2:-1 3:-0.20999999 4:0.47 5:-1 6:-0.20999999 7:-0.13 8:0.34 9:0.45999998 10:-0.13 11:0.34 12:0.45999998 13:1.11 14:0.22999999 15:0.77999997 16:1.11 17:0.22999999 18:0.77999997 19:-0.5 20:-0.69999999 21:-0.47 22:-0.5 23:-0.69999999 24:-0.47 25:-0.70999998 26:1.4399999 27:2.6399999 28:-0.22 29:-0.35999998 30:0.13 31:-0.22 32:-0.35999998 33:0.13 34:0.85999995 35:-1.8299999 36:-0.47 37:0.85999995 38:-1.8299999 39:-0.47 40:0.31999999 41:0.75 42:-0.32999998 43:0.31999999 44:0.75 45:-0.32999998 46:-0.07 47:0.29999998 48:1.4599999 49:-0.07 50:0.29999998 51:1.4599999 52:-1.3099999 53:-0.14999999 54:-0.16 55:-1.3099999 56:-0.14999999 57:-0.16 58:1.14 59:-0.19999999 60:2.99 61:1.14 62:-0.19999999 63:2.99 64:-0.64999998 65:-0.91999996 66:-4.52 67:-0.64999998 68:-0.91999996 69:-4.52 70:-0.079999998 71:-0.59999996 72:-1.63 73:-0.079999998 74:-0.59999996 75:-1.63 76:1.28 77:1.2099999 78:6.0999999 79:1.28 80:1.2099999 81:6.0999999 82:0.69 83:0.02 84:-2.5899999 85:0.69 86:0.02 87:-2.5899999 88:-1.53 89:0.94999999 90:0.17 91:-1.53 92:0.94999999 93:0.17 94:0.47 95:-1.11 96:2.22 97:0.47 98:-1.11 99:2.22 100:0.48999998 101:-0.37 102:-2.1199999 103:0.48999998 104:-0.37 105:-2.1199999 106:-0.37 107:0.75999999 108:0.14999999 109:-0.37 110:0.75999999 111:0.14999999 112:0.96999997 113:-0.35999998 114:-1.5999999 115:0.96999997 116:-0.35999998 117:-1.5999999 118:-1.54 119:0.53999996 120:0.65999997 121:-1.54 122:0.53999996 123:0.65999997 124:1.14 125:0.31 126:0.37 127:1.14 128:0.31 129:0.37 130:-0.17999999 131:-0.91999996 132:-3.3999999 133:-0.17999999 134:-0.91999996 135:-3.3999999 136:0.16 137:-0.28999999 138:-0.14 139:0.16 140:-0.28999999 141:-0.14 142:0.88999999 143:1.79 144:5.04 145:0.88999999 146:1.79 147:5.04 148:-0.75999999 149:-1.49 150:-4.0299997 
-0.6639792010114214 0.1647855019442423 1:-0.34 2:0.059999999 3:0.55000001 4:-0.34 5:0.059999999 6:0.55000001 7:1.28 8:-0.17999999 9:2.4400001 10:1.28 11:-0.17999999 12:2.4400001 13:-0.34999999 14:0 15:-1.54 16:-0.34999999 17:0 18:-1.54 19:0.029999999 20:0.22 21:1.4299999 22:0.029999999 23:0.22 24:1.4299999 25:0.029999999 26:0.28999999 27:2.3199999 28:0.029999999 29:0.28999999 30:2.3199999 31:-1.02 32:-1.79 33:-1.87 34:-1.02 35:-1.79 36:-1.87 37:0.90999997 38:0.17 39:0.68000001 40:0.90999997 41:0.17 42:0.68000001 43:1 44:0.87 45:0.25999999 46:1 47:0.87 48:0.25999999 49:-0.91999996 50:0.22 51:-1.0699999 52:-0.91999996 53:0.22 54:-1.0699999 55:1.37 56:0.5 57:3.0999999 58:1.37 59:0.5 60:3.0999999 61:-0.25 62:-1.9699999 63:-2.4199998 64:-0.25 65:-1.9699999 66:-2.4199998 67:-0.089999996 68:-0.34 69:-0.83999997 70:-0.089999996 71:-0.34 72:-0.83999997 73:0.66999996 74:2.23 75:3.46 76:0.66999996 77:2.23 78:3.46 79:0.48999998 80:-1.1999999 81:-4.3499999 82:0.48999998 83:-1.1999999 84:-4.3499999 85:-0.88 86:1.4599999 87:0.65999997 88:-0.88 89:1.4599999 90:0.65999997 91:0.50999999 92:0.049999997 93:1.9799999 94:0.50999999 95:0.049999997 96:1.9799999 97:0.47 98:-1.1899999 99:0.76999998 100:0.47 101:-1.1899999 102:0.76999998 103:-0.16 104:0 105:-1.12 106:0.23999999 107:0.89999998 108:-1.0799999 109:0.23999999 110:0.89999998 111:-1.0799999 112:-0.74000001 113:-0.13 114:-0.65999997 115:-0.74000001 116:-0.13 117:-0.65999997 118:-0.28 119:-1.0599999 120:1.9299999 121:-0.28 122:-1.0599999 123:1.9299999 124:-0.11 125:0.07 126:-0.74000001 127:-0.11 128:0.07 129:-0.74000001 130:-0.11 131:0.07 132:-0.74000001 133:0.62 134:0.93000001 135:-0.69999999 136:0.26999998 137:0.45999998 138:-0.20999999 139:0.26999998 140:0.45999998 141:-0.20999999 142:0.37 143:-0.72999996 144:1.26 145:0.37 146:-0.72999996 147:1.26 148:0.049999997 149:0.029999999 150:-0.69999999 
-1 0 1:-1.24 2:-0.029999999 3:-1.4499999 4:-0.079999998 5:1.1799999 6:3.3099999 7:-0.079999998 8:1.1799999 9:3.3099999 10:-0.34999999 11:-1.02 12:-2.21 13:-0.34999999 14:-1.02 15:-2.21 16:-0.11 17:0.13 18:-0.93000001 19:-0.11 20:0.13 21:-0.93000001 22:0.35999998 23:0.34 24:2.3099999 25:0.35999998 26:0.34 27:2.3099999 28:0.13 29:0.82999998 30:-2.8599999 31:0.13 32:0.82999998 33:-2.8599999 34:-0.0099999998 35:0.41999999 36:-0.51999998 37:-0.0099999998 38:0.41999999 39:-0.51999998 40:-0.50999999 41:-0.22999999 42:4.5999999 43:-0.50999999 44:-0.22999999 45:4.5999999 46:0.22 47:-1.3099999 48:-3.8399999 49:0.22 50:-1.3099999 51:-3.8399999 52:0.39999998 53:0.059999999 54:0.31999999 55:0.39999998 56:0.059999999 57:0.31999999 58:0.07 59:0.38 60:2.8599999 61:0.07 62:0.38 63:2.8599999 64:-0.39999998 65:-0.31 66:-2.1900001 67:-0.39999998 68:-0.31 69:-2.1900001 70:-0.31999999 71:0.38999999 72:2.3499999 73:-0.31999999 74:0.38999999 75:2.3499999 76:-0.25 77:-1.2099999 78:-1.4599999 79:-0.25 80:-1.2099999 81:-1.4599999 82:-0.23999999 83:-1.3299999 84:2.4299998 85:-0.23999999 86:-1.3299999 87:2.4299998 88:0.32999998 89:0.77999997 90:0.69999999 91:0.32999998 92:0.77999997 93:0.69999999 94:0.82999998 95:0.039999999 96:-1.9799999 97:0.82999998 98:0.039999999 99:-1.9799999 100:-1.3299999 101:0.34999999 102:-0.039999999 103:-1.3299999 104:0.34999999 105:-0.039999999 106:0.37 107:-0.22 108:1.1 109:0.37 110:-0.22 111:1.1 112:-0.19 113:-0.68000001 114:-3.9199998 115:-0.19 116:-0.68000001 117:-3.9199998 118:-0.66999996 119:0.0099999998 120:1.8099999 121:-0.66999996 122:0.0099999998 123:1.8099999 124:1.74 125:2.53 126:2.1399999 127:1.74 128:2.53 129:2.1399999 130:-0.29999998 131:-1.64 132:-3.1599998 133:-0.29999998 134:-1.64 135:-3.1599998 136:-0.51999998 137:1.42 138:0.25 139:-0.51999998 140:1.42 141:0.25 142:1.0599999 143:0.34999999 144:1.55 145:1.0599999 146:0.34999999 147:1.55 148:-1.3399999 149:-1.29 150:-3.4199998 
-0.3124075479764899 0.2033335569681809 1:-0.47 2:-0.76999998 3:-0.65999997 4:0.83999997 5:0.28999999 6:-1.27 7:0.83999997 8:0.28999999 9:-1.27 10:0.31999999 11:0.31999999 12:0.81 13:0.31999999 14:0.31999999 15:0.81 16:0.32999998 17:0.53999996 18:-0.56999999 19:0.32999998 20:0.53999996 21:-0.56999999 22:0.12 23:0.84999996 24:-0.14 25:0.12 26:0.84999996 27:-0.14 28:-0.90999997 29:0.14 30:-0.81999999 31:-0.90999997 32:0.14 33:-0.81999999 34:1.22 35:-0.75 36:1.41 37:1.22 38:-0.75 39:1.41 40:-0.34999999 41:-0.48999998 42:-1.9799999 43:-0.34999999 44:-0.48999998 45:-1.9799999 46:-0.47 47:0.089999996 48:0.32999998 49:-0.47 50:0.089999996 51:0.32999998 52:1.12 53:0.87 54:1.17 55:1.12 56:0.87 57:1.17 58:0.81 59:-0.70999998 60:-4.02 61:0.81 62:-0.70999998 63:-4.02 64:-1.1 65:1.26 66:1.0699999 67:-1.1 68:1.26 69:1.0699999 70:1.39 71:-0.87 72:2.49 73:1.39 74:-0.87 75:2.49 76:-0.59999996 77:-0.45999998 78:-1.14 79:-0.59999996 80:-0.45999998 81:-1.14 82:-0.14999999 83:0.63999999 84:-0.23999999 85:-0.14999999 86:0.63999999 87:-0.23999999 88:1.01 89:-0.31999999 90:0.62 91:1.01 92:-0.31999999 93:0.62 94:-1.39 95:-0.14999999 96:-0.34999999 97:-1.39 98:-0.14999999 99:-0.34999999 100:0.059999999 101:1.0599999 102:2.4099998 103:0.059999999 104:1.0599999 105:2.4099998 106:-0.31 107:-1.62 108:-2.6399999 109:-0.31 110:-1.62 111:-2.6399999 112:-0.19999999 113:0 114:0 115:-0.19999999 116:0 117:0 118:-0.14 119:1 120:1.01 121:-0.14 122:1 123:1.01 124:0.48999998 125:-0.41 126:-3.3299999 127:0.48999998 128:-0.41 129:-3.3299999 130:-1.3099999 131:-0.02 132:0.19 133:-1.3099999 134:-0.02 135:0.19 136:0.84999996 137:-0.22999999 138:2.1099999 139:0.84999996 140:-0.22999999 141:2.1099999 142:-0.65999997 143:-1.1 144:-3.6599998 145:-0.65999997 146:-1.1 147:-3.6599998 148:-0.51999998 149:0.50999999 150:-1.01 
-1 0 1:-0.13 2:-0.94999999 3:-0.91999996 4:-0.13 5:-0.94999999 6:-0.91999996 7:-0.14999999 8:-0.28 9:1.12 10:-0.14999999 11:-0.28 12:1.12 13:-0.29999998 14:0.22999999 15:-0.11 16:-0.29999998 17:0.22999999 18:-0.11 19:0.39999998 20:0.5 21:0.77999997 22:0.39999998 23:0.5 24:0.77999997 25:-0.96999997 26:-0.48999998 27:-0.55000001 28:-0.96999997 29:-0.48999998 30:-0.55000001 31:0 32:0.85999995 33:1.99 34:0 35:0.85999995 36:1.99 37:-1.1999999 38:-1.17 39:-2.3499999 40:-1.1999999 41:-1.17 42:-2.3499999 43:-0.059999999 44:-0.64999998 45:-2 46:-0.059999999 47:-0.64999998 48:-2 49:-0.079999998 50:0.26999998 51:0.90999997 52:-0.079999998 53:0.26999998 54:0.90999997 55:1.6999999 56:0.59999996 57:-1.1 58:1.6999999 59:0.59999996 60:-1.1 61:-1.8499999 62:-0.34999999 63:-1.4399999 64:-1.8499999 65:-0.34999999 66:-1.4399999 67:0.47 68:0.61000001 69:4.5899997 70:0.47 71:0.61000001 72:4.5899997 73:-0.07 74:-1.5799999 75:-4.5999999 76:-0.07 77:-1.5799999 78:-4.5999999 79:-0.51999998 80:-0.82999998 81:-0.82999998 82:-0.51999998 83:-0.82999998 84:-0.82999998 85:-0.14999999 86:0.85999995 87:6.8599997 88:-0.14999999 89:0.85999995 90:6.8599997 91:2.3399999 92:1.16 93:-2.79 94:2.3399999 95:1.16 96:-2.79 97:-1.4499999 98:-0.13 99:-0.02 100:-1.4499999 101:-0.13 102:-0.02 103:1.1899999 104:-0.32999998 105:3.01 106:1.1899999 107:-0.32999998 108:3.01 109:-0.97999996 110:-0.17999999 111:-2.1099999 112:-0.97999996 113:-0.17999999 114:-2.1099999 115:-0.35999998 116:0.48999998 117:0.63 118:-0.35999998 119:0.48999998 120:0.63 121:1.41 122:0.17 123:0.65999997 124:1.41 125:0.17 126:0.65999997 127:0.52999997 128:-0.029999999 129:-2.6399999 130:0.52999997 131:-0.029999999 132:-2.6399999 133:-0.61000001 134:0.81999999 135:-1.3 136:-0.61000001 137:0.81999999 138:-1.3 139:-0.50999999 140:0.47 141:3.53 142:-0.50999999 143:0.47 144:3.53 145:0.25999999 146:-0.93000001 147:-3.98 148:0.25999999 149:-0.93000001 150:-3.98 
-0.8424269806231973 0 1:0.14999999 2:-0.029999999 3:1.64 4:0.41 5:-1.05 6:-1.51 7:0.41 8:-1.05 9:-1.51 10:-0.56 11:-0.88 12:1.24 13:-0.56 14:-0.88 15:1.24 16:-0.049999997 17:1.16 18:0.69 19:-0.049999997 20:1.16 21:0.69 22:0.25 23:0.049999997 24:-1.8199999 25:0.25 26:0.049999997 27:-1.8199999 28:-0.44999999 29:0.38999999 30:-0.69 31:-0.44999999 32:0.38999999 33:-0.69 34:-0.5 35:-0.12 36:3.1499999 37:-0.5 38:-0.12 39:3.1499999 40:-0.71999997 41:-1.03 42:-2.55 43:-0.71999997 44:-1.03 45:-2.55 46:-0.049999997 47:-0.039999999 48:0.88 49:-0.049999997 50:-0.039999999 51:0.88 52:0.84999996 53:0.47999999 54:1.12 55:0.84999996 56:0.47999999 57:1.12 58:0.98999995 59:0.64999998 60:-4.0299997 61:0.98999995 62:0.64999998 63:-4.0299997 64:-1.37 65:-0.02 66:0.66999996 67:-1.37 68:-0.02 69:0.66999996 70:1.65 71:0 72:3.5799999 73:1.65 74:0 75:3.5799999 76:-0.22999999 77:-0.87 78:-1.4 79:-0.22999999 80:-0.87 81:-1.4 82:0.079999998 83:-0.14 84:-0.31999999 85:0.079999998 86:-0.14 87:-0.31999999 88:0.55000001 89:0.45999998 90:2.8699999 91:0.55000001 92:0.45999998 93:2.8699999 94:-0.53999996 95:0.07 96:-3.29 97:-0.53999996 98:0.07 99:-3.29 100:0.72999996 101:0.70999998 102:4.29 103:0.72999996 104:0.70999998 105:4.29 106:-2.2 107:-0.68000001 108:-1.8499999 109:-2.2 110:-0.68000001 111:-1.8499999 112:0.31999999 113:-0.72999996 114:-1.1999999 115:0.31999999 116:-0.72999996 117:-1.1999999 118:0.31999999 119:1.3099999 120:1.0599999 121:0.31999999 122:1.3099999 123:1.0599999 124:0.94999999 125:-1.55 126:-0.42999998 127:0.94999999 128:-1.55 129:-0.42999998 130:-1.26 131:-0.45999998 132:-0.17999999 133:-1.26 134:-0.45999998 135:-0.17999999 136:0.14 137:1.8499999 138:3.3199999 139:0.14 140:1.8499999 141:3.3199999 142:-1.05 143:-2.49 144:-1.5699999 145:-1.05 146:-2.49 147:-1.5699999 148:0.19 149:-0.91999996 150:-0.61000001 
-0.6824767697359674 0.2006599654235948 1:-0.56 2:0.34999999 3:-0.88 4:-0.56 5:0.34999999 6:-0.88 7:-0.58999997 8:0.47999999 9:2.75 10:-0.58999997 11:0.47999999 12:2.75 13:-0.59999996 14:-1.14 15:-2.5599999 16:-0.59999996 17:-1.14 18:-2.5599999 19:-0.14 20:0.48999998 21:-0.34999999 22:-0.14 23:0.48999998 24:-0.34999999 25:0.66999996 26:0.14999999 27:1.88 28:0.66999996 29:0.14999999 30:1.88 31:-0.69 32:0.44 33:-3.53 34:-0.69 35:0.44 36:-3.53 37:-0.32999998 38:0.17999999 39:0.12 40:0.28 41:-0.029999999 42:2.1800001 43:0.28 44:-0.029999999 45:2.1800001 46:-0.22999999 47:-1.4599999 48:-4.1999998 49:-0.22999999 50:-1.4599999 51:-4.1999998 52:0.089999996 53:0.64999998 54:0.079999998 55:0.089999996 56:0.64999998 57:0.079999998 58:-0.37 59:0.41999999 60:2.97 61:-0.37 62:0.41999999 63:2.97 64:-0.37 65:0.41999999 66:2.97 67:2.8499999 68:0.75 69:-1.29 70:-1.5 71:0.47999999 72:0.0099999998 73:-1.5 74:0.47999999 75:0.0099999998 76:0.74000001 77:-0.95999998 78:-0.69999999 79:0.74000001 80:-0.95999998 81:-0.69999999 82:0.51999998 83:0.28999999 84:-2.49 85:0.51999998 86:0.28999999 87:-2.49 88:-0.47999999 89:0.19 90:-1.48 91:-0.47999999 92:0.19 93:-1.48 94:0.25999999 95:-0.42999998 96:3.24 97:0.25999999 98:-0.42999998 99:3.24 100:0.28 101:0.42999998 102:-0.94 103:0.28 104:0.42999998 105:-0.94 106:-0.70999998 107:0.55000001 108:0.32999998 109:-0.70999998 110:0.55000001 111:0.32999998 112:0.42999998 113:-0.64999998 114:-0.059999999 115:0.42999998 116:-0.64999998 117:-0.059999999 118:-0.049999997 119:0.19 120:-2.6599998 121:-0.049999997 122:0.19 123:-2.6599998 124:-0.23999999 125:0.68000001 126:0.17999999 127:-0.23999999 128:0.68000001 129:0.17999999 130:-0.13 131:-1.04 132:0.56 133:-0.13 134:-1.04 135:0.56 136:-0.049999997 137:0.34999999 138:-1 139:-0.049999997 140:0.34999999 141:-1 142:0 143:0.47999999 144:0.07 145:0 146:0.47999999 147:0.07 148:0.039999999 149:-0.23999999 150:0.31999999 
-0.5636074006822367 0.4083157172228198 1:1.03 2:-1 3:-1.79 4:0.099999994 5:-1.3099999 6:2.8099999 7:0.099999994 8:-1.3099999 9:2.8099999 10:-0.50999999 11:-0.55000001 12:-0.22 13:-0.50999999 14:-0.55000001 15:-0.22 16:0.5 17:0.70999998 18:-0.29999998 19:0.5 20:0.70999998 21:-0.29999998 22:0.13 23:-0.44 24:1.0599999 25:0.13 26:-0.44 27:1.0599999 28:0.19999999 29:0.35999998 30:1.1 31:0.19999999 32:0.35999998 33:1.1 34:0.039999999 35:1.37 36:0.56 37:0.039999999 38:1.37 39:0.56 40:-0.14999999 41:-0.51999998 42:-1.6899999 43:-0.14999999 44:-0.51999998 45:-1.6899999 46:0.83999997 47:0.56999999 48:1.01 49:0.83999997 50:0.56999999 51:1.01 52:-0.89999998 53:0.39999998 54:-2.1199999 55:-0.89999998 56:0.39999998 57:-2.1199999 58:-0.41999999 59:0.62 60:-5.29 61:-0.41999999 62:0.62 63:-5.29 64:0.38999999 65:1.62 66:0.22999999 67:0.38999999 68:1.62 69:0.22999999 70:-0.02 71:-0.19 72:0.41999999 73:-0.02 74:-0.19 75:0.41999999 76:-0.95999998 77:0 78:-0.41 79:-0.95999998 80:0 81:-0.41 82:-0.50999999 83:0.63 84:0.37 85:-0.50999999 86:0.63 87:0.37 88:0.34 89:-0.89999998 90:-0.44999999 91:0.34 92:-0.89999998 93:-0.44999999 94:-0.13 95:-0.48999998 96:3.6399999 97:-0.13 98:-0.48999998 99:3.6399999 100:1.23 101:0.70999998 102:-0.71999997 103:1.23 104:0.70999998 105:-0.71999997 106:-0.38999999 107:0.17999999 108:-1.67 109:-0.38999999 110:0.17999999 111:-1.67 112:0.34 113:0.17999999 114:1.03 115:0.34 116:0.17999999 117:1.03 118:1.24 119:-0.25999999 120:-0.57999998 121:1.24 122:-0.25999999 123:-0.57999998 124:-0.61000001 125:0.72999996 126:-0.63 127:-0.61000001 128:0.72999996 129:-0.63 130:-0.44 131:0.22999999 132:0.78999996 133:-0.44 134:0.22999999 135:0.78999996 136:0.28 137:0.14999999 138:0.14 139:0.28 140:0.14999999 141:0.14 142:-0.44999999 143:-0.47 144:-2.72 145:-0.44999999 146:-0.47 147:-2.72 148:0.17 149:0.34999999 150:-0.69 
-0.2873466380665225 0.4464251457380307 1:0.78999996 2:0.47 3:1.51 4:-0.20999999 5:-0.85999995 6:-0.28 7:-0.20999999 8:-0.85999995 9:-0.28 10:-0.17999999 11:1.0799999 12:0.14 13:-0.17999999 14:1.0799999 15:0.14 16:-0.41999999 17:-0.47999999 18:0.65999997 19:-0.41999999 20:-0.47999999 21:0.65999997 22:0.44999999 23:-0.96999997 24:-1.65 25:0.44999999 26:-0.96999997 27:-1.65 28:0.11 29:-1.63 30:2.24 31:0.11 32:-1.63 33:2.24 34:0.97999996 35:1.53 36:-0.41 37:0.97999996 38:1.53 39:-0.41 40:0.059999999 41:0.72999996 42:1.2099999 43:0.059999999 44:0.72999996 45:1.2099999 46:-0.28 47:-0.62 48:0 49:-0.28 50:-0.62 51:0 52:0.19999999 53:0.58999997 54:-0.099999994 55:0.19999999 56:0.58999997 57:-0.099999994 58:-0.02 59:-0.29999998 60:1.1899999 61:-0.02 62:-0.29999998 63:1.1899999 64:-0.38 65:-0.58999997 66:-1.53 67:-0.38 68:-0.58999997 69:-1.53 70:-0.56 71:-0.83999997 72:0.74000001 73:-0.56 74:-0.83999997 75:0.74000001 76:1.4499999 77:0.90999997 78:1.5899999 79:1.4499999 80:0.90999997 81:1.5899999 82:-0.37 83:0.12 84:-1.3399999 85:-0.37 86:0.12 87:-1.3399999 88:0.26999998 89:-0.41999999 90:0.64999998 91:0.26999998 92:-0.41999999 93:0.64999998 94:-0.50999999 95:1.25 96:0.39999998 97:-0.50999999 98:1.25 99:0.39999998 100:0.55000001 101:-1.02 102:1.87 103:0.55000001 104:-1.02 105:1.87 106:-0.19 107:-0.64999998 108:-1.65 109:-0.19 110:-0.64999998 111:-1.65 112:-0.38999999 113:0.37 114:-0.63 115:-0.38999999 116:0.37 117:-0.63 118:1.09 119:0.83999997 120:1.04 121:1.09 122:0.83999997 123:1.04 124:-0.049999997 125:0.0099999998 126:-1.8 127:-0.049999997 128:0.0099999998 129:-1.8 130:-1.05 131:0.14999999 132:0.17 133:-1.05 134:0.14999999 135:0.17 136:0.53999996 137:0.53999996 138:3.28 139:0.53999996 140:0.53999996 141:3.28 142:-1.05 143:-1.39 144:-2.73 145:-1.05 146:-1.39 147:-2.73 148:0.94999999 149:-0.90999997 150:2.77 
-0.6665677141147218 0.09745483819832393 1:-0.62 2:0.26999998 3:2.03 4:-0.62 5:0.26999998 6:2.03 7:-0.58999997 8:-0.13 9:-0.65999997 10:-0.58999997 11:-0.13 12:-0.65999997 13:-0.28999999 14:-0.77999997 15:-0.68000001 16:-0.28999999 17:-0.77999997 18:-0.68000001 19:0.68000001 20:1.01 21:2.5899999 22:0.68000001 23:1.01 24:2.5899999 25:1.5799999 26:0.31 27:2.0999999 28:1.5799999 29:0.31 30:2.0999999 31:-1.8499999 32:-0.22 33:-2.99 34:-1.8499999 35:-0.22 36:-2.99 37:0.93000001 38:2.99 39:2.21 40:0.93000001 41:2.99 42:2.21 43:-0.22999999 44:-3.22 45:-0.98999995 46:-0.22999999 47:-3.22 48:-0.98999995 49:-0.84999996 50:-0.37 51:-0.62 52:-0.84999996 53:-0.37 54:-0.62 55:0.79999995 56:1.35 57:-0.11 58:0.79999995 59:1.35 60:-0.11 61:0.79999995 62:1.35 63:-0.11 64:0.79999995 65:1.35 66:-0.11 67:-0.89999998 68:0.20999999 69:-3.26 70:-0.89999998 71:0.20999999 72:-3.26 73:-0.099999994 74:0.69999999 75:1.64 76:-0.099999994 77:0.69999999 78:1.64 79:1.3099999 80:-0.84999996 81:-0.83999997 82:1.3099999 83:-0.84999996 84:-0.83999997 85:-1.09 86:-0.85999995 87:0.28 88:-1.09 89:-0.85999995 90:0.28 91:-0.61000001 92:0.34999999 93:-1.3099999 94:-0.61000001 95:0.34999999 96:-1.3099999 97:1.4 98:1.4499999 99:2.52 100:1.4 101:1.4499999 102:2.52 103:0.089999996 104:-0.77999997 105:-1.3299999 106:0.089999996 107:-0.77999997 108:-1.3299999 109:-1.53 110:1.25 111:-0.90999997 112:-1.53 113:1.25 114:-0.90999997 115:0.84999996 116:-0.63999999 117:0.059999999 118:0.84999996 119:-0.63999999 120:0.059999999 121:0.47 122:-0.63 123:0.31999999 124:0.47 125:-0.63 126:0.31999999 127:-0.44999999 128:0.17 129:-0.89999998 130:-0.44999999 131:0.17 132:-0.89999998 133:0.87 134:0.41 135:3.1899998 136:0.87 137:0.41 138:3.1899998 139:-0.34 140:-0.28999999 141:0.089999996 142:-0.34 143:-0.28999999 144:0.089999996 145:-0.64999998 146:0 147:0.12 148:-0.64999998 149:0 150:0.12 
-0.1230718181343077 0.9281205538787543 1:-0.059999999 2:0.28999999 3:-0.13 4:-0.059999999 5:0.28999999 6:-0.13 7:-0.34999999 8:0.22 9:0.66999996 10:-0.34999999 11:0.22 12:0.66999996 13:-0.0099999998 14:-1.0599999 15:1.51 16:-0.0099999998 17:-1.0599999 18:1.51 19:-0.53999996 20:-0.02 21:-1.53 22:-0.53999996 23:-0.02 24:-1.53 25:-0.059999999 26:0.75 27:-1.42 28:-0.059999999 29:0.75 30:-1.42 31:0.79999995 32:-0.25 33:1.0699999 34:0.79999995 35:-0.25 36:1.0699999 37:0.25 38:0.02 39:0.71999997 40:0.25 41:0.02 42:0.71999997 43:-0.23999999 44:0.52999997 45:-1.16 46:-0.23999999 47:0.52999997 48:-1.16 49:0 50:0.089999996 51:0.78999996 52:0 53:0.089999996 54:0.78999996 55:-0.39999998 56:-0.94 57:-0.28999999 58:-0.39999998 59:-0.94 60:-0.28999999 61:-0.38999999 62:-0.07 63:1.29 64:-0.38999999 65:-0.07 66:1.29 67:0.26999998 68:0.56 69:-1.37 70:0.26999998 71:0.56 72:-1.37 73:0.75 74:0.72999996 75:0.53999996 76:0.75 77:0.72999996 78:0.53999996 79:0.20999999 80:-0.70999998 81:0.69999999 82:0.20999999 83:-0.70999998 84:0.69999999 85:-0.47 86:0.63999999 87:-1.49 88:-0.47 89:0.63999999 90:-1.49 91:-0.34999999 92:0.44 93:1.23 94:-0.34999999 95:0.44 96:1.23 97:-0.20999999 98:-0.079999998 99:-0.82999998 100:-0.20999999 101:-0.079999998 102:-0.82999998 103:1.7199999 104:-1.28 105:2.2 106:1.7199999 107:-1.28 108:2.2 109:-0.14 110:-0.62 111:1.13 112:-0.14 113:-0.62 114:1.13 115:-0.17999999 116:1.5699999 117:-2.46 118:-0.17999999 119:1.5699999 120:-2.46 121:-0.34999999 122:0 123:2.4099998 124:-0.34999999 125:0 126:2.4099998 127:1.04 128:-1.03 129:-2.3899999 130:1.04 131:-1.03 132:-2.3899999 133:-0.59999996 134:0.14 135:0.31999999 136:-0.59999996 137:0.14 138:0.31999999 139:0 140:1.17 141:1.1799999 142:0 143:1.17 144:1.1799999 145:-0.39999998 146:-0.58999997 147:-0.39999998 148:-0.39999998 149:-0.58999997 150:-0.39999998 
-0.8876075734064311 0 1:-0.57999998 2:-1.14 3:3.8999999 4:0.17 5:1 6:-1.7199999 7:0.17 8:1 9:-1.7199999 10:-0.029999999 11:-0.47 12:-1.3199999 13:-0.029999999 14:-0.47 15:-1.3199999 16:1.0699999 17:1.29 18:0.68000001 19:1.0699999 20:1.29 21:0.68000001 22:-0.81 23:0.02 24:2.4099998 25:-0.81 26:0.02 27:2.4099998 28:-0.0099999998 29:-0.34999999 30:-0.62 31:-0.0099999998 32:-0.34999999 33:-0.62 34:-0.69999999 35:-1.28 36:1.54 37:-0.69999999 38:-1.28 39:1.54 40:0.48999998 41:0.13 42:-1.15 43:0.48999998 44:0.13 45:-1.15 46:0.75 47:0.81 48:0.63 49:0.75 50:0.81 51:0.63 52:0.39999998 53:-0.25 54:-2.1800001 55:0.39999998 56:-0.25 57:-2.1800001 58:-0.16 59:1.49 60:1.2099999 61:-0.16 62:1.49 63:1.2099999 64:-0.81999999 65:-0.69999999 66:1.37 67:-0.81999999 68:-0.69999999 69:1.37 70:0.93000001 71:-1.35 72:-0.089999996 73:0.93000001 74:-1.35 75:-0.089999996 76:0.29999998 77:0.50999999 78:-2.0999999 79:0.29999998 80:0.50999999 81:-2.0999999 82:0.75 83:0.5 84:4.0999999 85:0.75 86:0.5 87:4.0999999 88:-0.099999994 89:-0.66999996 90:-3.8299999 91:-0.099999994 92:-0.66999996 93:-3.8299999 94:-1.1799999 95:0.65999997 96:0.97999996 97:1.26 98:0.28999999 99:1.54 100:1.26 101:0.28999999 102:1.54 103:1.26 104:0.28999999 105:1.54 106:-0.94999999 107:-1.1899999 108:-1.5699999 109:-0.14 110:0.20999999 111:-2.3199999 112:-0.14 113:0.20999999 114:-2.3199999 115:0.61000001 116:1.5 117:3.29 118:0.61000001 119:1.5 120:3.29 121:1.25 122:-0.39999998 123:-4.5099998 124:1.25 125:-0.39999998 126:-4.5099998 127:-1.0699999 128:0.14 129:-0.16 130:-1.0699999 131:0.14 132:-0.16 133:0.38 134:0.72999996 135:2.54 136:0.38 137:0.72999996 138:2.54 139:-1.24 140:-1.28 141:-4.21 142:-1.24 143:-1.28 144:-4.21 145:-0.83999997 146:-0.55000001 147:-0.81999999 148:-0.83999997 149:-0.55000001 150:-0.81999999 
-0.8740598498328851 0.06946181282624578 1:-0.25999999 2:-0.58999997 3:0.55000001 4:-0.25999999 5:-0.58999997 6:0.55000001 7:0.34 8:0.82999998 9:-0.35999998 10:0.34 11:0.82999998 12:-0.35999998 13:1.02 14:-0.37 15:1.8 16:1.02 17:-0.37 18:1.8 19:0.22 20:-0.19 21:-1.1999999 22:0.22 23:-0.19 24:-1.1999999 25:-0.78999996 26:1.04 27:-0.029999999 28:-0.78999996 29:1.04 30:-0.029999999 31:0.96999997 32:-0.28999999 33:0.53999996 34:0.96999997 35:-0.28999999 36:0.53999996 37:-0.34 38:-0.98999995 39:-2.71 40:-0.34 41:-0.98999995 42:-2.71 43:0.07 44:-1.5899999 45:2.3399999 46:0.07 47:-1.5899999 48:2.3399999 49:1.3099999 50:1.8299999 51:1.7199999 52:1.3099999 53:1.8299999 54:1.7199999 55:-0.17999999 56:0.31 57:1.24 58:-0.17999999 59:0.31 60:1.24 61:0.059999999 62:-1.4499999 63:-1.7199999 64:0.059999999 65:-1.4499999 66:-1.7199999 67:0.31 68:1.0699999 69:-1.3299999 70:0.31 71:1.0699999 72:-1.3299999 73:0.22999999 74:-0.22999999 75:-0.31 76:0.22999999 77:-0.22999999 78:-0.31 79:-0.25 80:-0.94 81:3.1999998 82:-0.25 83:-0.94 84:3.1999998 85:-0.90999997 86:-0.099999994 87:0.34 88:-0.90999997 89:-0.099999994 90:0.34 91:1.5 92:0.48999998 93:-5.1999998 94:1.5 95:0.48999998 96:-5.1999998 97:-0.22 98:1.1 99:4.5299997 100:-0.22 101:1.1 102:4.5299997 103:-0.0099999998 104:-0.31999999 105:-1.16 106:-0.0099999998 107:-0.31999999 108:-1.16 109:-0.83999997 110:-0.75999999 111:-1.3199999 112:-0.83999997 113:-0.75999999 114:-1.3199999 115:0.71999997 116:1.74 117:3.0699999 118:0.71999997 119:1.74 120:3.0699999 121:-0.049999997 122:-1.5 123:0.029999999 124:-0.049999997 125:-1.5 126:0.029999999 127:-0.049999997 128:-0.63 129:0.44 130:-0.049999997 131:-0.63 132:0.44 133:-0.20999999 134:0.63 135:-2.02 136:-0.20999999 137:0.63 138:-2.02 139:1.1899999 140:1.16 141:1.14 142:1.1899999 143:1.16 144:1.14 145:-0.56 146:-0.72999996 147:-2.1900001 148:-0.56 149:-0.72999996 150:-2.1900001 
-0.4406363488562238 0.3361186606864299 1:0.41 2:-0.52999997 3:0 4:-0.19999999 5:-0.0099999998 6:-2.04 7:-0.19999999 8:-0.0099999998 9:-2.04 10:-0.55000001 11:-0.44 12:2.6599998 13:-0.55000001 14:-0.44 15:2.6599998 16:0.85999995 17:1.61 18:-1.55 19:0.85999995 20:1.61 21:-1.55 22:-1.03 23:0.76999998 24:-0.75999999 25:-1.03 26:0.76999998 27:-0.75999999 28:0.70999998 29:-0.59999996 30:0.029999999 31:0.70999998 32:-0.59999996 33:0.029999999 34:1.3299999 35:0.87 36:-0.89999998 37:1.3299999 38:0.87 39:-0.89999998 40:0.079999998 41:0.52999997 42:0.63 43:0.079999998 44:0.52999997 45:0.63 46:-0.38 47:-0.44999999 48:0.63999999 49:-0.38 50:-0.44999999 51:0.63999999 52:-0.58999997 53:-0.50999999 54:-0.20999999 55:-0.58999997 56:-0.50999999 57:-0.20999999 58:0.41 59:-0.50999999 60:0.22 61:0.41 62:-0.50999999 63:0.22 64:0.95999998 65:1.35 66:-0.34 67:0.95999998 68:1.35 69:-0.34 70:-0.89999998 71:-0.59999996 72:-2.1800001 73:-0.89999998 74:-0.59999996 75:-2.1800001 76:-1.0599999 77:-0.02 78:0.85999995 79:1.4399999 80:0.69999999 81:2.3399999 82:1.4399999 83:0.69999999 84:2.3399999 85:-1.78 86:-0.85999995 87:-1.6899999 88:-1.78 89:-0.85999995 90:-1.6899999 91:-0.25999999 92:-1.16 93:0.79999995 94:-0.25999999 95:-1.16 96:0.79999995 97:0.42999998 98:0.47999999 99:0.51999998 100:0.42999998 101:0.47999999 102:0.51999998 103:1.76 104:0.22 105:1.4399999 106:1.76 107:0.22 108:1.4399999 109:-0.90999997 110:-1.3399999 111:-1.7099999 112:-0.90999997 113:-1.3399999 114:-1.7099999 115:-0.34 116:2.3 117:3.6999998 118:-0.34 119:2.3 120:3.6999998 121:-0.41 122:-1.1799999 123:-1.1999999 124:-0.41 125:-1.1799999 126:-1.1999999 127:-0.66999996 128:-0.81999999 129:-1.25 130:-0.66999996 131:-0.81999999 132:-1.25 133:0.38 134:0.70999998 135:-0.59999996 136:0.38 137:0.70999998 138:-0.59999996 139:0.32999998 140:0.57999998 141:1.53 142:0.32999998 143:0.57999998 144:1.53 145:-1.0799999 146:-0.58999997 147:-2.52 148:-1.0799999 149:-0.58999997 150:-2.52 
-0.9225490444161287 0 1:0.64999998 2:-0.14999999 3:-1.5699999 4:0.64999998 5:-0.14999999 6:-1.5699999 7:-0.38999999 8:0.84999996 9:-1.22 10:-0.38999999 11:0.84999996 12:-1.22 13:0.48999998 14:-0.22 15:2.1199999 16:0.48999998 17:-0.22 18:2.1199999 19:-0.42999998 20:-0.45999998 21:-1.65 22:-0.42999998 23:-0.45999998 24:-1.65 25:-0.69999999 26:-0.5 27:0.63999999 28:-0.69999999 29:-0.5 30:0.63999999 31:0.82999998 32:1.29 33:0.23999999 34:0.82999998 35:1.29 36:0.23999999 37:-0.25 38:-0.39999998 39:0.41 40:-0.25 41:-0.39999998 42:0.41 43:-0.95999998 44:-1.48 45:0.22999999 46:-0.95999998 47:-1.48 48:0.22999999 49:1.9499999 50:2.1099999 51:3.04 52:1.9499999 53:2.1099999 54:3.04 55:0.28999999 56:-1.0699999 57:-0.039999999 58:0.28999999 59:-1.0699999 60:-0.039999999 61:-0.22 62:-0.94999999 63:-1.0599999 64:-0.22 65:-0.94999999 66:-1.0599999 67:-0.87 68:0.48999998 69:-2.8499999 70:-0.87 71:0.48999998 72:-2.8499999 73:3.0899999 74:2.98 75:3.8999999 76:3.0899999 77:2.98 78:3.8999999 79:-3.26 80:-2.73 81:-1.65 82:-3.26 83:-2.73 84:-1.65 85:-0.19 86:0.11 87:-0.71999997 88:-0.19 89:0.11 90:-0.71999997 91:1.6899999 92:0.88999999 93:0.61000001 94:1.6899999 95:0.88999999 96:0.61000001 97:-1.39 98:-0.65999997 99:-0.41999999 100:-1.39 101:-0.65999997 102:-0.41999999 103:-0.77999997 104:-1.3199999 105:3.05 106:-0.77999997 107:-1.3199999 108:3.05 109:1.4399999 110:1.5899999 111:-1.3299999 112:1.4399999 113:1.5899999 114:-1.3299999 115:0.22 116:0.66999996 117:0.16 118:0.22 119:0.66999996 120:0.16 121:0.77999997 122:-0.089999996 123:-2.6499999 124:0.77999997 125:-0.089999996 126:-2.6499999 127:-1.0799999 128:0.34999999 129:-0.90999997 130:-1.0799999 131:0.34999999 132:-0.90999997 133:0.28999999 134:0.47 135:1.8 136:0.28999999 137:0.47 138:1.8 139:0.45999998 140:-0.94 141:1.3399999 142:0.45999998 143:-0.94 144:1.3399999 145:-1.4599999 146:-0.079999998 147:-2.28 148:-1.4599999 149:-0.079999998 150:-2.28 
-0.5321402593039457 0.5011084086286948 1:0.56999999 2:0.81999999 3:0 4:0.56999999 5:0.81999999 6:0 7:0.61000001 8:0.079999998 9:1.0799999 10:0.61000001 11:0.079999998 12:1.0799999 13:0.48999998 14:0.02 15:-0.87 16:0.48999998 17:0.02 18:-0.87 19:-0.81 20:1.63 21:-0.94 22:-0.81 23:1.63 24:-0.94 25:0.74000001 26:-1 27:0.78999996 28:0.74000001 29:-1 30:0.78999996 31:-1.2099999 32:-0.37 33:-0.95999998 34:-1.2099999 35:-0.37 36:-0.95999998 37:-1.2099999 38:-0.37 39:-0.95999998 40:-1.2099999 41:-0.37 42:-0.95999998 43:-0.41999999 44:-0.59999996 45:-0.94999999 46:-0.41999999 47:-0.59999996 48:-0.94999999 49:0.39999998 50:0.37 51:1.3299999 52:0.39999998 53:0.37 54:1.3299999 55:0.89999998 56:0.88999999 57:-1.15 58:0.89999998 59:0.88999999 60:-1.15 61:-1.1799999 62:-1.02 63:-0.14999999 64:-1.1799999 65:-1.02 66:-0.14999999 67:0.16 68:1.05 69:2.8899999 70:0.16 71:1.05 72:2.8899999 73:-1.03 74:-1 75:-1.28 76:-1.03 77:-1 78:-1.28 79:0.44 80:-1.4 81:0.91999996 82:0.44 83:-1.4 84:0.91999996 85:-0.20999999 86:0.68000001 87:-0.32999998 88:-0.20999999 89:0.68000001 90:-0.32999998 91:1.12 92:1.17 93:1.9299999 94:1.12 95:1.17 96:1.9299999 97:-0.94 98:-1.6899999 99:-1.79 100:-0.94 101:-1.6899999 102:-1.79 103:-0.28 104:1.4599999 105:3.21 106:-0.28 107:1.4599999 108:3.21 109:-0.70999998 110:-0.89999998 111:-1.25 112:-0.70999998 113:-0.89999998 114:-1.25 115:0.81999999 116:-1.09 117:1.5 118:0.81999999 119:-1.09 120:1.5 121:-0.53999996 122:-0.28 123:-1.61 124:-0.53999996 125:-0.28 126:-1.61 127:0.85999995 128:1.9499999 129:2.53 130:0.85999995 131:1.9499999 132:2.53 133:-0.099999994 134:-0.68000001 135:-0.47 136:-0.099999994 137:-0.68000001 138:-0.47 139:-1.3299999 140:0.51999998 141:0.29999998 142:-1.3299999 143:0.51999998 144:0.29999998 145:2.1699998 146:-1.53 147:0.079999998 148:2.1699998 149:-1.53 150:0.079999998 
-0.8017114134656759 0.120602754705185 1:-1.2099999 2:-0.44999999 3:-2.8399999 4:-1.2099999 5:-0.44999999 6:-2.8399999 7:-0.079999998 8:0.31 9:-1.54 10:-0.079999998 11:0.31 12:-1.54 13:0.39999998 14:0.19 15:2.3099999 16:0.39999998 17:0.19 18:2.3099999 19:0.79999995 20:-0.28999999 21:-1.87 22:0.79999995 23:-0.28999999 24:-1.87 25:-0.79999995 26:1.1 27:0 28:-0.79999995 29:1.1 30:0 31:-0.25999999 32:-0.099999994 33:0.55000001 34:-0.25999999 35:-0.099999994 36:0.55000001 37:-0.76999998 38:-1.2099999 39:-3.5699999 40:-0.76999998 41:-1.2099999 42:-3.5699999 43:-0.11 44:-1.13 45:-0.039999999 46:-0.11 47:-1.13 48:-0.039999999 49:1.1 50:1.9699999 51:2.27 52:1.1 53:1.9699999 54:2.27 55:-0.62 56:-0.029999999 57:0.089999996 58:-0.62 59:-0.029999999 60:0.089999996 61:-0.22 62:-1.15 63:-0.19 64:-0.22 65:-1.15 66:-0.19 67:0.5 68:0.56999999 69:1.29 70:0.5 71:0.56999999 72:1.29 73:0.77999997 74:-0.76999998 75:1.5999999 76:0.77999997 77:-0.76999998 78:1.5999999 79:-0.68000001 80:-0.39999998 81:-2.99 82:-0.68000001 83:-0.39999998 84:-2.99 85:-0.95999998 86:0.71999997 87:-0.35999998 88:-0.95999998 89:0.71999997 90:-0.35999998 91:1.61 92:-0.77999997 93:1.9699999 94:1.61 95:-0.77999997 96:1.9699999 97:0.76999998 98:1.1799999 99:-3.3299999 100:0.76999998 101:1.1799999 102:-3.3299999 103:-1.52 104:-0.29999998 105:1 106:-1.52 107:-0.29999998 108:1 109:2.48 110:-0.12 111:1.5799999 112:2.48 113:-0.12 114:1.5799999 115:-1.3 116:-0.38999999 117:-1.91 118:-1.3 119:-0.38999999 120:-1.91 121:-0.81 122:-1.01 123:0.75999999 124:-0.81 125:-1.01 126:0.75999999 127:0.38 128:0.44 129:0.63 130:0.38 131:0.44 132:0.63 133:0.41 134:1.1999999 135:-1.62 136:0.41 137:1.1999999 138:-1.62 139:-1.13 140:-1.0799999 141:-0.69 142:-1.13 143:-1.0799999 144:-0.69 145:0.13 146:1.4599999 147:2.79 148:0.13 149:1.4599999 150:2.79 
-0.4818628691449138 0.3314520942061074 1:-1.41 2:-0.029999999 3:0.39999998 4:-1.41 5:-0.029999999 6:0.39999998 7:0.32999998 8:-0.41 9:0.69999999 10:0.32999998 11:-0.41 12:0.69999999 13:-0.47 14:-0.5 15:-1.5599999 16:-0.47 17:-0.5 18:-1.5599999 19:0.14 20:0.31 21:0.32999998 22:0.14 23:0.31 24:0.32999998 25:0.14 26:0.31 27:0.32999998 28:0.14 29:0.31 30:0.32999998 31:-0.31999999 32:0.34999999 33:-2.76 34:-0.31999999 35:0.34999999 36:-2.76 37:-0.34999999 38:0.65999997 39:0.41 40:-0.34999999 41:0.65999997 42:0.41 43:0.079999998 44:0.19999999 45:1.7099999 46:0.079999998 47:0.19999999 48:1.7099999 49:0.0099999998 50:-1.0799999 51:-0.17 52:0.0099999998 53:-1.0799999 54:-0.17 55:-0.059999999 56:-0.13 57:-1.3099999 58:-0.059999999 59:-0.13 60:-1.3099999 61:-0.19 62:0.57999998 63:1.4599999 64:-0.19 65:0.57999998 66:1.4599999 67:0.77999997 68:0.25 69:-1.4699999 70:0.77999997 71:0.25 72:-1.4699999 73:-0.44999999 74:-0.74000001 75:0.90999997 76:-0.44999999 77:-0.74000001 78:0.90999997 79:-0.82999998 80:1.29 81:2.99 82:-0.82999998 83:1.29 84:2.99 85:-0.68000001 86:-1.1999999 87:-2.5899999 88:-0.68000001 89:-1.1999999 90:-2.5899999 91:0.44 92:-0.32999998 93:-0.059999999 94:0.44 95:-0.32999998 96:-0.059999999 97:-0.47999999 98:1.29 99:0.94999999 100:-0.47999999 101:1.29 102:0.94999999 103:0.74000001 104:-0.23999999 105:-0.38 106:0.74000001 107:-0.23999999 108:-0.38 109:-1.51 110:-1.9699999 111:0.20999999 112:-1.51 113:-1.9699999 114:0.20999999 115:0.78999996 116:1.3299999 117:3.5 118:0.78999996 119:1.3299999 120:3.5 121:-0.94999999 122:-0.61000001 123:-2.78 124:-0.94999999 125:-0.61000001 126:-2.78 127:0.82999998 128:-2.48 129:3.24 130:0.82999998 131:-2.48 132:3.24 133:-0.099999994 134:0.63999999 135:-0.099999994 136:-0.099999994 137:0.63999999 138:-0.099999994 139:0.29999998 140:1.4699999 141:-0.029999999 142:0.29999998 143:1.4699999 144:-0.029999999 145:0.44999999 146:-1.8399999 147:0.11 148:0.44999999 149:-1.8399999 150:0.11 
-0.7773975542090261 0.1464741052213709 1:0.19 2:-0.69999999 3:1.63 4:0.07 5:0.25999999 6:1.14 7:0.07 8:0.25999999 9:1.14 10:0.82999998 11:-0.07 12:0.56 13:0.82999998 14:-0.07 15:0.56 16:0.029999999 17:0.07 18:-1.42 19:0.029999999 20:0.07 21:-1.42 22:-0.70999998 23:0.79999995 24:1.13 25:-0.70999998 26:0.79999995 27:1.13 28:-0.079999998 29:-0.47999999 30:0.65999997 31:-0.079999998 32:-0.47999999 33:0.65999997 34:0.29999998 35:-1.3399999 36:0.5 37:0.29999998 38:-1.3399999 39:0.5 40:-0.32999998 41:0.74000001 42:-1.29 43:-0.32999998 44:0.74000001 45:-1.29 46:1.5699999 47:0.87 48:2.3399999 49:1.5699999 50:0.87 51:2.3399999 52:0.44999999 53:-1.49 54:-2.27 55:0.44999999 56:-1.49 57:-2.27 58:-0.35999998 59:1.9399999 60:-0.23999999 61:-0.35999998 62:1.9399999 63:-0.23999999 64:0.38999999 65:-0.089999996 66:1.25 67:0.38999999 68:-0.089999996 69:1.25 70:-0.32999998 71:-0.82999998 72:-4.8499999 73:-0.32999998 74:-0.82999998 75:-4.8499999 76:-0.28999999 77:0.48999998 78:0.52999997 79:-0.28999999 80:0.48999998 81:0.52999997 82:0.34 83:1.05 84:2.8799999 85:0.34 86:1.05 87:2.8799999 88:-0.26999998 89:-0.51999998 90:-2.5999999 91:-0.26999998 92:-0.51999998 93:-2.5999999 94:-0.58999997 95:-0.84999996 96:-0.48999998 97:-0.58999997 98:-0.84999996 99:-0.48999998 100:0.69 101:0.42999998 102:3.28 103:0.69 104:0.42999998 105:3.28 106:-0.099999994 107:-1.16 108:-0.75 109:-0.099999994 110:-1.16 111:-0.75 112:-1.0599999 113:-0.56 114:2.3599999 115:-1.0599999 116:-0.56 117:2.3599999 118:0.81999999 119:0.55000001 120:-1.1799999 121:0.81999999 122:0.55000001 123:-1.1799999 124:0.31999999 125:0.72999996 126:-0.41999999 127:0.31999999 128:0.72999996 129:-0.41999999 130:0.029999999 131:0 132:3.4099998 133:0.029999999 134:0 135:3.4099998 136:0.87 137:-0.68000001 138:-2.0699999 139:0.87 140:-0.68000001 141:-2.0699999 142:-0.63 143:1.8 144:0.079999998 145:-0.63 146:1.8 147:0.079999998 148:1.13 149:-1.4299999 150:2.1599998 
