svm_type c_svc
kernel_type rbf
gamma 0.333333
nr_class 3
total_sv 41
rho 0.500664 -0.761862 -0.83559
label 2 1 3
nr_sv 14 18 9
SV
0.9454706304683227 0 1:-1.0861752 2:-1.2326044 3:1.4173795 
0 1 1:-0.47346008 2:-0.21249451 3:0.53430786 
0.2278779040203293 0 1:-1.0060397 2:0.31207764 3:1.2766577 
0 0.6716005953289591 1:-0.81207794 2:-0.75461487 3:0.71369995 
0.04550361400426194 1 1:0.061971436 2:-0.12081573 3:0.18036407 
1 0.2280538801925816 1:-2.057515 2:1.1828375 3:0.88061737 
0 1 1:-0.44121857 2:0.039825134 3:0.5920929 
0.9200885736243949 0 1:0.44477997 2:-2.1650992 3:0.1855307 
0 1 1:0.56907471 2:-0.70101044 3:0.19696014 
0 1 1:0.39380066 2:-0.19823151 3:0.62252594 
1 0.1596039764920049 1:2.1888837 2:-2.7409424 3:1.9246933 
0.01722492057912353 0 1:1.2162796 2:-2.0580273 3:1.2283661 
0.9291561368794011 0 1:1.1237845 2:0.22901031 3:1.351489 
0.5355710494622486 1 1:1.002471 2:-0.34206238 3:0.079087524 
-0.1580349320901758 0.05099312889668336 1:4.5594131 2:-3.1919263 3:8.335455 
-0.4357006706661913 0.1433299950542515 1:6.6393259 2:-9.0531747 3:7.1570609 
-0.3830978006492881 0.1260101848189554 1:6.997027 2:-3.0896912 3:7.5401517 
-0.1122778402377045 0.03745200248469752 1:5.6823093 2:-2.085614 3:7.6645175 
-0.3636084088672353 0.1196495569042934 1:6.3118271 2:-1.4938376 3:9.2441815 
-0.3752584843808699 0.1232243772172363 1:3.2553098 2:-0.89522217 3:7.9980435 
-0.4312999649601664 0.1419749885034887 1:5.3556836 2:-7.6024979 3:8.5619101 
-0.153205022676555 0.05168479217144339 1:3.5150568 2:-4.5019006 3:7.7322827 
-0.37658438619124 0.1245365381015776 1:3.200556 2:-3.6012149 3:10.411736 
-0.3923809565038698 0.1291493172453266 1:3.512627 2:-1.3090253 3:10.884279 
-0.2945801181819593 0.09663522913535252 1:5.0617386 2:1.0103265 3:13.132574 
-0.3976387474946423 0.1309563179239561 1:6.9828351 2:0.76560425 3:12.281091 
-0.2833391325359889 0.09330877326293083 1:4.9926514 2:2.4269809 3:11.882603 
-0.2956720622812487 0.09733591346111428 1:5.2223541 2:3.7529086 3:13.359993 
-0.4245862244975938 0.1398522074975634 1:4.0462659 2:5.4687283 3:13.367525 
-0.4069398641121077 0.1339546475075356 1:2.5666394 2:-5.6734567 3:6.1314676 
-0.1872698073347688 0.06095466353229077 1:2.5104156 2:-4.5191052 3:7.6115015 
-0.1494184053764767 0.04932509057624241 1:2.8971353 2:-2.5249237 3:8.0433572 
-1 -0 1:0.0071383667 2:-0.02981781 3:-0.023117981 
-1 -0 1:-0.0031292725 2:-0.05634491 3:-0.04511322 
-1 -0 1:0.0045016479 2:-0.027652283 3:-0.010376892 
-0.05925845201354556 -0 1:-0.076528015 2:-0.077356873 3:-0.044165955 
-1 -0.6479405182583613 1:-0.066708679 2:-0.051196289 3:-0.0076452637 
-1 -0 1:-0.029440308 2:-0.060645447 3:-0.035276794 
-1 -0 1:-0.013731079 2:-0.034825745 3:-0.018917542 
-0 -0.8904943895722301 1:0.02587738 2:0.073079224 3:-0.1618512 
-1 -0.3118928164643485 1:-0.022290649 2:-0.10815216 3:-0.065016174 
